{"learner":{"attributes":{"scikit_learn":"{\"_estimator_type\": \"classifier\"}"},"feature_names":["interest_rate","credit_utilization","daily_spent","credit_balance","category_amount_sum_business","category_amount_sum_misc","amount","category_amount_sum_agricultural","category_amount_sum_utility"],"feature_types":["float","float","int","float","float","float","float","float","float"],"gradient_booster":{"model":{"gbtree_model_param":{"num_parallel_tree":"1","num_trees":"500"},"iteration_indptr":[0,5,10,15,20,25,30,35,40,45,50,55,60,65,70,75,80,85,90,95,100,105,110,115,120,125,130,135,140,145,150,155,160,165,170,175,180,185,190,195,200,205,210,215,220,225,230,235,240,245,250,255,260,265,270,275,280,285,290,295,300,305,310,315,320,325,330,335,340,345,350,355,360,365,370,375,380,385,390,395,400,405,410,415,420,425,430,435,440,445,450,455,460,465,470,475,480,485,490,495,500],"tree_info":[0,1,2,3,4,0,1,2,3,4,0,1,2,3,4,0,1,2,3,4,0,1,2,3,4,0,1,2,3,4,0,1,2,3,4,0,1,2,3,4,0,1,2,3,4,0,1,2,3,4,0,1,2,3,4,0,1,2,3,4,0,1,2,3,4,0,1,2,3,4,0,1,2,3,4,0,1,2,3,4,0,1,2,3,4,0,1,2,3,4,0,1,2,3,4,0,1,2,3,4,0,1,2,3,4,0,1,2,3,4,0,1,2,3,4,0,1,2,3,4,0,1,2,3,4,0,1,2,3,4,0,1,2,3,4,0,1,2,3,4,0,1,2,3,4,0,1,2,3,4,0,1,2,3,4,0,1,2,3,4,0,1,2,3,4,0,1,2,3,4,0,1,2,3,4,0,1,2,3,4,0,1,2,3,4,0,1,2,3,4,0,1,2,3,4,0,1,2,3,4,0,1,2,3,4,0,1,2,3,4,0,1,2,3,4,0,1,2,3,4,0,1,2,3,4,0,1,2,3,4,0,1,2,3,4,0,1,2,3,4,0,1,2,3,4,0,1,2,3,4,0,1,2,3,4,0,1,2,3,4,0,1,2,3,4,0,1,2,3,4,0,1,2,3,4,0,1,2,3,4,0,1,2,3,4,0,1,2,3,4,0,1,2,3,4,0,1,2,3,4,0,1,2,3,4,0,1,2,3,4,0,1,2,3,4,0,1,2,3,4,0,1,2,3,4,0,1,2,3,4,0,1,2,3,4,0,1,2,3,4,0,1,2,3,4,0,1,2,3,4,0,1,2,3,4,0,1,2,3,4,0,1,2,3,4,0,1,2,3,4,0,1,2,3,4,0,1,2,3,4,0,1,2,3,4,0,1,2,3,4,0,1,2,3,4,0,1,2,3,4,0,1,2,3,4,0,1,2,3,4,0,1,2,3,4,0,1,2,3,4,0,1,2,3,4,0,1,2,3,4,0,1,2,3,4,0,1,2,3,4,0,1,2,3,4,0,1,2,3,4,0,1,2,3,4,0,1,2,3,4,0,1,2,3,4,0,1,2,3,4,0,1,2,3,4,0,1,2,3,4,0,1,2,3,4,0,1,2,3,4,0,1,2,3,4,0,1,2,3,4],"trees":[{"base_weights":[2.4009824E0,2.3887854E0,2.4112034E0,2.4139044E0,2.340189E0,7.443114E-1,2.4068737E0,7.414447E-1,2.4089065E0,2.3500347E0,2.1473398E0,2.3222678E0,2.4108033E0,2.3876252E0,2.427199E0,2.3000052E0,2.3823502E0,2.021061E0,7.3969126E-1,2.4280136E0,2.2105114E0,2.456836E0,2.4054084E0,2.3923106E0,2.0329812E0,7.3189986E-1,2.38621E0,2.3323715E0,2.0574145E0,7.2514373E-1,2.3368545E0,6.516559E-1,1.8351763E0,2.2840579E0,7.489145E-1,1.9238942E0,6.992056E-1,7.4643695E-1,2.4136167E0,1.93254E0,2.409615E0,7.0018256E-1,7.273854E-1,5.1732993E-1,7.380497E-1,6.740556E-1,7.27484E-1,6.1518705E-1,7.0269567E-1,7.007685E-1,4.8648646E-1,7.330974E-1,6.810346E-1,4.832289E-1,6.066799E-1,6.560134E-1,7.430684E-1,6.1452085E-1,-1.5584415E-1,6.6160756E-1,7.3242116E-1,6.16681E-1,1.0849909E-2,7.051767E-1,7.242593E-1],"categories":[],"categories_nodes":[],"categories_segments":[],"categories_sizes":[],"default_left":[0,0,0,0,0,0,0,0,0,0,0,0,0,0,0,0,0,0,0,0,0,0,0,0,0,0,0,0,0,0,0,0,0,0,0,0,0,0,0,0,0,0,0,0,0,0,0,0,0,0,0,0,0,0,0,0,0,0,0,0,0,0,0,0,0],"id":0,"left_children":[1,3,5,7,9,-1,11,-1,13,15,17,19,21,23,25,27,29,31,-1,33,35,37,39,41,43,-1,45,47,49,-1,51,-1,53,55,-1,57,-1,-1,59,61,63,-1,-1,-1,-1,-1,-1,-1,-1,-1,-1,-1,-1,-1,-1,-1,-1,-1,-1,-1,-1,-1,-1,-1,-1],"loss_changes":[5.28125E0,4.3671875E1,8.53125E0,1.703125E0,2.115625E1,0E0,9.453125E0,0E0,3.75E0,1.57265625E1,2.2427246E1,1.8669922E1,4.8125E0,1.4074219E1,8.828125E-1,3.5853516E1,6.9257812E0,9.885742E0,0E0,4.4838867E0,2.9960938E1,5.6640625E-2,7.2296875E1,1.5535156E1,1.621936E1,0E0,1.13203125E1,7.9804688E0,7.1207275E1,0E0,1.9205078E1,0E0,6.3102417E0,1.0600586E0,0E0,9.268347E1,0E0,0E0,5.7021484E0,8.073828E1,4.6875E0,0E0,0E0,0E0,0E0,0E0,0E0,0E0,0E0,0E0,0E0,0E0,0E0,0E0,0E0,0E0,0E0,0E0,0E0,0E0,0E0,0E0,0E0,0E0,0E0],"parents":[2147483647,0,0,1,1,2,2,3,3,4,4,6,6,8,8,9,9,10,10,11,11,12,12,13,13,14,14,15,15,16,16,17,17,19,19,20,20,21,21,22,22,23,23,24,24,26,26,27,27,28,28,30,30,32,32,33,33,35,35,38,38,39,39,40,40],"right_children":[2,4,6,8,10,-1,12,-1,14,16,18,20,22,24,26,28,30,32,-1,34,36,38,40,42,44,-1,46,48,50,-1,52,-1,54,56,-1,58,-1,-1,60,62,64,-1,-1,-1,-1,-1,-1,-1,-1,-1,-1,-1,-1,-1,-1,-1,-1,-1,-1,-1,-1,-1,-1,-1,-1],"split_conditions":[2.035687E-1,1.8603818E-1,2.0602013E-1,1.5321453E-1,2.0301308E-1,7.443114E-1,2.0784445E-1,7.414447E-1,1.6865139E-1,1.9306101E-1,8.71E-1,2.0700352E-1,2.122954E-1,9.99E-1,1.8213806E-1,9.88E-1,1.0637141E3,9.596878E2,7.3969126E-1,2.0638132E-1,2.0722748E-1,1.0942095E3,2.126152E-1,7.7101044E2,1.6031401E-1,7.3189986E-1,1.8308453E-1,2.3E-2,2.6778115E3,7.2514373E-1,1.9707125E-1,6.516559E-1,2.0316912E-1,1.9895375E3,7.489145E-1,9.95E-1,6.992056E-1,7.4643695E-1,2.6E-1,9.94E-1,2.1477024E-1,7.0018256E-1,7.273854E-1,5.1732993E-1,7.380497E-1,6.740556E-1,7.27484E-1,6.1518705E-1,7.0269567E-1,7.007685E-1,4.8648646E-1,7.330974E-1,6.810346E-1,4.832289E-1,6.066799E-1,6.560134E-1,7.430684E-1,6.1452085E-1,-1.5584415E-1,6.6160756E-1,7.3242116E-1,6.16681E-1,1.0849909E-2,7.051767E-1,7.242593E-1],"split_indices":[0,0,0,0,0,0,0,0,0,0,1,0,0,1,0,1,3,3,0,0,0,3,0,3,0,0,0,1,3,0,0,0,0,3,0,1,0,0,1,1,0,0,0,0,0,0,0,0,0,0,0,0,0,0,0,0,0,0,0,0,0,0,0,0,0],"split_type":[0,0,0,0,0,0,0,0,0,0,0,0,0,0,0,0,0,0,0,0,0,0,0,0,0,0,0,0,0,0,0,0,0,0,0,0,0,0,0,0,0,0,0,0,0,0,0,0,0,0,0,0,0,0,0,0,0,0,0,0,0,0,0,0,0],"sum_hessian":[8.838241E4,4.0402883E4,4.7979523E4,2.6603201E4,1.3799681E4,2.7676802E3,4.5211844E4,2.0854402E3,2.4517762E4,1.3118721E4,6.8096E2,2.0329601E3,4.3178883E4,1.1393921E4,1.3123841E4,5.17664E3,7.9420806E3,4.9280005E2,1.8816002E2,1.03392E3,9.990401E2,4.4819204E3,3.869696E4,1.1239681E4,1.5424E2,1.001824E4,3.1056003E3,4.55968E3,6.1696E2,4.47072E3,3.4713604E3,2.6592E2,2.2688002E2,3.4400003E2,6.8992004E2,3.0016003E2,6.9888007E2,2.5670403E3,1.9148801E3,3.4528003E2,3.8351684E4,4.0307202E3,7.2089604E3,9.248E1,6.1760006E1,6.8832007E2,2.4172803E3,1.6256001E2,4.39712E3,3.7376004E2,2.4320001E2,1.3212802E3,2.15008E3,1.07520004E2,1.1936001E2,2.3680002E2,1.07200005E2,2.8576E2,1.4400001E1,2.3488002E2,1.6800001E3,3.2416003E2,2.112E1,2.8000002E3,3.5551684E4],"tree_param":{"num_deleted":"0","num_feature":"9","num_nodes":"65","size_leaf_vector":"1"}},{"base_weights":[-6.166542E-1,-1.8644547E-1,-6.109047E-1,-1.8748224E-1,-6.0592234E-1,-2.6248398E-1,-6.07708E-1,3.412969E-1,-1.8559837E-1,-5.870105E-1,-6.172808E-1,-1.6489987E-1,9.984399E-1,-5.9747565E-1,7.3224306E-3,-6.20779E-1,-5.975731E-1,-1.00175746E-1,4.918033E-2,6.9688386E-1,-1.7252396E-1,-1.8128599E-1,-1.6332944E-1,-6.783516E-2,6.818182E-1,-1.8195933E-1,-1.8695596E-1,-9.697051E-2,-1.8335262E-1],"categories":[],"categories_nodes":[],"categories_segments":[],"categories_sizes":[],"default_left":[0,0,0,0,0,0,0,0,0,0,0,0,0,0,0,0,0,0,0,0,0,0,0,0,0,0,0,0,0],"id":1,"left_children":[1,-1,3,-1,5,7,9,11,-1,13,15,17,19,21,23,25,27,-1,-1,-1,-1,-1,-1,-1,-1,-1,-1,-1,-1],"loss_changes":[2.0742188E0,0E0,2.4472656E0,0E0,1.815039E1,3.380243E1,5.5234375E0,1.9657562E1,0E0,5.8556152E1,1.027832E0,1.9422152E0,5.4773144E1,3.0131836E0,8.717942E1,2.1142578E-1,1.1316406E1,0E0,0E0,0E0,0E0,0E0,0E0,0E0,0E0,0E0,0E0,0E0,0E0],"parents":[2147483647,0,0,2,2,4,4,5,5,6,6,7,7,9,9,10,10,11,11,12,12,13,13,14,14,15,15,16,16],"right_children":[2,-1,4,-1,6,8,10,12,-1,14,16,18,20,22,24,26,28,-1,-1,-1,-1,-1,-1,-1,-1,-1,-1,-1,-1],"split_conditions":[1.0066205E3,-1.8644547E-1,1.8247567E-1,-1.8748224E-1,1.8308453E-1,3.05E-1,2.0722748E-1,8.64E0,-1.8559837E-1,2.0700352E-1,2.4301653E-1,1.9042766E3,1.1433E2,9.94E-1,9.95E-1,2.126152E-1,2.4335805E-1,-1.00175746E-1,4.918033E-2,6.9688386E-1,-1.7252396E-1,-1.8128599E-1,-1.6332944E-1,-6.783516E-2,6.818182E-1,-1.8195933E-1,-1.8695596E-1,-9.697051E-2,-1.8335262E-1],"split_indices":[3,0,0,0,0,1,0,5,0,0,0,3,5,1,1,0,0,0,0,0,0,0,0,0,0,0,0,0,0],"split_type":[0,0,0,0,0,0,0,0,0,0,0,0,0,0,0,0,0,0,0,0,0,0,0,0,0,0,0,0,0],"sum_hessian":[8.838241E4,4.7970883E4,4.0411523E4,1.0554241E4,2.9857281E4,1.5520001E2,2.9702082E4,5.7600002E1,9.7600006E1,9.412801E3,2.0289281E4,3.2960003E1,2.4640001E1,9.249921E3,1.6288E2,1.72048E4,3.0844802E3,2.1760002E1,1.1200001E1,1.3120001E1,1.152E1,8.1881606E3,1.0617601E3,1.4848001E2,1.4400001E1,2.5235203E3,1.4681281E4,1.4688E2,2.9376E3],"tree_param":{"num_deleted":"0","num_feature":"9","num_nodes":"29","size_leaf_vector":"1"}},{"base_weights":[-5.9490806E-1,-6.083535E-1,-5.885548E-1,-1.8747419E-1,-6.02616E-1,-4.4479343E-1,-5.901789E-1,-5.895616E-1,-6.179116E-1,-5.1483524E-1,7.05036E-1,-5.649403E-1,-5.9616274E-1,-6.008785E-1,-5.065963E-1,-6.1178666E-1,-1.8745822E-1,-5.515605E-1,-3.4637055E-1,-5.700413E-1,-3.9937213E-1,-5.9714055E-1,-4.662184E-1,-5.7119745E-1,-6.1418855E-1,-5.400845E-1,-3.527138E-1,-1.8572865E-1,-5.077899E-1,-4.9853182E-1,-1.8667486E-1,-5.078761E-1,-9.159034E-2,-5.9145314E-1,-5.460383E-1,-5.264666E-1,-2.004126E-1,-6.184696E-1,-5.919599E-1,-5.413051E-1,6.550218E-2,-1.7347902E-1,-1.5240641E-1,-1.8609807E-1,-1.6952029E-1,-1.6365516E-1,-8.265802E-2,2.8485756E-2,-1.6867469E-1,-1.7218332E-1,-1.2786019E-1,-1.7553577E-1,-1.19433194E-1,-1.5876228E-1,-4.379562E-2,-7.54717E-2,4.513274E-1,-1.803659E-1,-1.6715138E-1,-2.7320035E-2,-1.6499501E-1,-1.3497452E-1,-1.854734E-1,-1.8134034E-1,-2.4840044E-2,-1.8635252E-1,-1.7875555E-1,-1.2162628E-1,-1.7861661E-1,-1.4128673E-1,-1.8621822E-1,4.1603053E-1,-1.8146718E-1],"categories":[],"categories_nodes":[],"categories_segments":[],"categories_sizes":[],"default_left":[0,0,0,0,0,0,0,0,0,0,0,0,0,0,0,0,0,0,0,0,0,0,0,0,0,0,0,0,0,0,0,0,0,0,0,0,0,0,0,0,0,0,0,0,0,0,0,0,0,0,0,0,0,0,0,0,0,0,0,0,0,0,0,0,0,0,0,0,0,0,0,0,0],"id":2,"left_children":[1,3,5,-1,7,9,11,13,15,17,-1,19,21,23,25,27,-1,29,31,33,35,37,39,41,43,45,47,-1,49,51,-1,53,55,57,59,61,63,65,67,69,71,-1,-1,-1,-1,-1,-1,-1,-1,-1,-1,-1,-1,-1,-1,-1,-1,-1,-1,-1,-1,-1,-1,-1,-1,-1,-1,-1,-1,-1,-1,-1,-1],"loss_changes":[7.1933594E0,2.3164062E0,1.3755859E1,0E0,3.8427734E0,1.3333281E2,8.630859E0,1.0389404E1,2.9785156E-2,3.8876038E0,0E0,9.399902E0,5.8203125E0,3.6062012E0,6.88739E0,3.6330566E0,0E0,1.7123718E0,4.9192743E0,5.359375E0,8.594116E0,4.8945312E0,1.4525093E1,1.0970459E0,1.7307129E0,1.4682312E0,2.3350014E1,0E0,1.6261597E0,2.4914246E0,0E0,4.9122238E-1,1.2644701E1,1.6174316E0,9.329102E0,1.1924744E0,6.399626E0,1.9799805E-1,2.4280273E1,1.4850998E0,4.1406986E1,0E0,0E0,0E0,0E0,0E0,0E0,0E0,0E0,0E0,0E0,0E0,0E0,0E0,0E0,0E0,0E0,0E0,0E0,0E0,0E0,0E0,0E0,0E0,0E0,0E0,0E0,0E0,0E0,0E0,0E0,0E0,0E0],"parents":[2147483647,0,0,1,1,2,2,4,4,5,5,6,6,7,7,8,8,9,9,11,11,12,12,13,13,14,14,15,15,17,17,18,18,19,19,20,20,21,21,22,22,23,23,24,24,25,25,26,26,28,28,29,29,31,31,32,32,33,33,34,34,35,35,36,36,37,37,38,38,39,39,40,40],"right_children":[2,4,6,-1,8,10,12,14,16,18,-1,20,22,24,26,28,-1,30,32,34,36,38,40,42,44,46,48,-1,50,52,-1,54,56,58,60,62,64,66,68,70,72,-1,-1,-1,-1,-1,-1,-1,-1,-1,-1,-1,-1,-1,-1,-1,-1,-1,-1,-1,-1,-1,-1,-1,-1,-1,-1,-1,-1,-1,-1,-1,-1],"split_conditions":[1.8838686E-1,1.6031401E-1,1.8946198E-1,-1.8747419E-1,1.7557587E-1,1E0,2.035687E-1,1.7380674E-1,1.8247567E-1,2.0456619E3,7.05036E-1,2.0316912E-1,2.4963662E-1,1.6440602E-1,2.8163E2,1.8213806E-1,-1.8745822E-1,3.96E-1,1.8893315E-1,9.97643E2,9.995834E2,2.122954E-1,2.8163E2,9.85E-1,2.9678582E3,1.5037E2,9.783147E2,-1.8572865E-1,9.955627E2,1.8893315E-1,-1.8667486E-1,1.0702E2,1.1495E2,2.0064501E-1,9.986661E2,3.05E-1,3.31E-1,9.89E-1,2.1280092E-1,9.8941266E2,9.8941266E2,-1.7347902E-1,-1.5240641E-1,-1.8609807E-1,-1.6952029E-1,-1.6365516E-1,-8.265802E-2,2.8485756E-2,-1.6867469E-1,-1.7218332E-1,-1.2786019E-1,-1.7553577E-1,-1.19433194E-1,-1.5876228E-1,-4.379562E-2,-7.54717E-2,4.513274E-1,-1.803659E-1,-1.6715138E-1,-2.7320035E-2,-1.6499501E-1,-1.3497452E-1,-1.854734E-1,-1.8134034E-1,-2.4840044E-2,-1.8635252E-1,-1.7875555E-1,-1.2162628E-1,-1.7861661E-1,-1.4128673E-1,-1.8621822E-1,4.1603053E-1,-1.8146718E-1],"split_indices":[0,0,0,0,0,1,0,0,0,3,0,0,0,0,4,0,0,1,0,3,3,0,4,1,3,8,3,0,3,0,0,7,5,0,3,1,1,1,0,3,3,0,0,0,0,0,0,0,0,0,0,0,0,0,0,0,0,0,0,0,0,0,0,0,0,0,0,0,0,0,0,0,0],"split_type":[0,0,0,0,0,0,0,0,0,0,0,0,0,0,0,0,0,0,0,0,0,0,0,0,0,0,0,0,0,0,0,0,0,0,0,0,0,0,0,0,0,0,0,0,0,0,0,0,0,0,0,0,0,0,0,0,0,0,0,0,0,0,0,0,0,0,0,0,0,0,0,0,0],"sum_hessian":[8.838241E4,2.8330883E4,6.0051523E4,7.2620806E3,2.10688E4,6.7392004E2,5.9377605E4,1.138848E4,9.68032E3,6.5824005E2,1.5680001E1,1.1398081E4,4.7979523E4,1.0016001E4,1.3724801E3,5.19264E3,4.48768E3,5.3856006E2,1.1968001E2,1.1055041E4,3.4304004E2,4.76176E4,3.6192E2,3.1145603E3,6.9014404E3,1.1251201E3,2.4736002E2,4.8470405E3,3.4560004E2,3.1232E2,2.2624002E2,7.264001E1,4.7040005E1,5.8304004E3,5.22464E3,2.0832E2,1.3472002E2,9.282561E3,3.8335043E4,3.1712003E2,4.4800003E1,2.7939202E3,3.2064E2,6.1244805E3,7.769601E2,1.1014401E3,2.3680002E1,7.904001E1,1.6832E2,1.8752002E2,1.5808002E2,1.6512001E2,1.4720001E2,6.816E1,4.4800005E0,4.3520004E1,3.5200002E0,4.5248003E3,1.3056001E3,4.5120003E1,5.1795205E3,1.1680001E2,9.1520004E1,2.9440002E1,1.0528001E2,8.2672E3,1.01536005E3,6.940801E2,3.764096E4,1.7184001E2,1.4528001E2,1.4720001E1,3.0080002E1],"tree_param":{"num_deleted":"0","num_feature":"9","num_nodes":"73","size_leaf_vector":"1"}},{"base_weights":[-5.9331274E-1,-5.89139E-1,-6.0661113E-1,-5.906551E-1,-2.967121E-1,-1.8747532E-1,-5.962472E-1,-5.9345293E-1,-5.516123E-1,3.159851E-1,-4.0693748E-1,-4.893566E-1,-5.9893686E-1,-5.8955467E-1,-1.874727E-1,-5.0597256E-1,-1.8739119E-1,-1.8607442E-1,1.0800744E0,-4.944692E-1,-1.4524328E-2,-1.7531043E-1,-5.4847836E-1,-5.9581447E-1,-1.8736677E-1,-5.904152E-1,-4.634581E-1,-4.598716E-1,-5.5456305E-1,7.7777773E-1,-5.2132696E-1,1.7728531E0,-2.9850745E-1,-2.8288022E-1,-5.5284894E-1,1.4713216E0,-1.8281718E-1,2.4074075E-1,-2.3229244E-1,-4.606263E-1,-1.8626676E-1,-6.0100794E-1,-4.176099E-1,-1.7921285E-1,-1.7536312E-1,-1.5198949E-1,-4.526404E-2,-1.23230405E-1,-1.8269777E-1,-1.7592436E-1,-9.5579155E-2,-1.2328767E-1,3.4745762E-1,-1.7937608E-1,5.5555556E-2,1.858407E-1,6.2637365E-1,1.15384616E-1,-1.583851E-1,-1.8203034E-1,7.655954E-2,-1.8145533E-1,-1.289456E-1,6.5671647E-1,2E-1,-1.3320462E-1,2.1390375E-2,-1.7098704E-1,1.9672132E-1,-1.8613635E-1,-1.7859581E-1,-1.0013385E-1,-1.8557967E-1],"categories":[],"categories_nodes":[],"categories_segments":[],"categories_sizes":[],"default_left":[0,0,0,0,0,0,0,0,0,0,0,0,0,0,0,0,0,0,0,0,0,0,0,0,0,0,0,0,0,0,0,0,0,0,0,0,0,0,0,0,0,0,0,0,0,0,0,0,0,0,0,0,0,0,0,0,0,0,0,0,0,0,0,0,0,0,0,0,0,0,0,0,0],"id":3,"left_children":[1,3,5,7,9,-1,11,13,15,17,19,21,23,25,-1,27,-1,29,31,33,35,37,39,41,-1,43,45,47,49,51,53,55,57,59,61,63,-1,-1,65,67,-1,69,71,-1,-1,-1,-1,-1,-1,-1,-1,-1,-1,-1,-1,-1,-1,-1,-1,-1,-1,-1,-1,-1,-1,-1,-1,-1,-1,-1,-1,-1,-1],"loss_changes":[4.546875E0,2.9667969E1,3.6269531E0,6.984375E0,2.3709038E1,0E0,3.5830078E0,7.2929688E0,1.4653687E1,2.0839642E1,1.0172363E1,6.1490326E0,6.796875E-1,5.7578125E0,0E0,5.9483643E0,0E0,1.1172298E1,2.1043737E1,2.8363762E0,4.9580704E1,3.237407E0,1.5117416E0,1.061377E1,0E0,1.9082031E0,5.0716705E0,1.0198273E1,9.910004E0,4.545882E0,1.4808931E0,3.9538612E0,1.4632285E0,9.642486E0,9.481888E-1,7.8041687E0,0E0,0E0,3.4075267E0,1.6430979E1,0E0,8.925781E-1,5.4500656E0,0E0,0E0,0E0,0E0,0E0,0E0,0E0,0E0,0E0,0E0,0E0,0E0,0E0,0E0,0E0,0E0,0E0,0E0,0E0,0E0,0E0,0E0,0E0,0E0,0E0,0E0,0E0,0E0,0E0,0E0],"parents":[2147483647,0,0,1,1,2,2,3,3,4,4,6,6,7,7,8,8,9,9,10,10,11,11,12,12,13,13,15,15,17,17,18,18,19,19,20,20,21,21,22,22,23,23,25,25,26,26,27,27,28,28,29,29,30,30,31,31,32,32,33,33,34,34,35,35,38,38,39,39,41,41,42,42],"right_children":[2,4,6,8,10,-1,12,14,16,18,20,22,24,26,-1,28,-1,30,32,34,36,38,40,42,-1,44,46,48,50,52,54,56,58,60,62,64,-1,-1,66,68,-1,70,72,-1,-1,-1,-1,-1,-1,-1,-1,-1,-1,-1,-1,-1,-1,-1,-1,-1,-1,-1,-1,-1,-1,-1,-1,-1,-1,-1,-1,-1,-1],"split_conditions":[2.2886306E-1,2.2852688E-1,2.3621583E-1,2.2354816E-1,3.458576E2,-1.8747532E-1,2.3647247E-1,2.1734801E-1,2.2688529E-1,1.51E-1,9.79E-1,1.313023E2,2.4863543E-1,2.1693811E-1,-1.874727E-1,4.41E-1,-1.8739119E-1,6.5555984E1,2.09E2,6.009065E2,9.955627E2,1.731754E0,9.707032E2,2.4832088E-1,-1.8736677E-1,1.843157E-1,1.1495E2,2.2603355E-1,2.265548E-1,1.1E-2,1.29E-1,8.64E0,9.041145E0,4.13E-1,8.39E-1,9.83E-1,-1.8281718E-1,2.4074075E-1,6.9E-2,4.83E-1,-1.8626676E-1,1.51E-1,7.75E-1,-1.7921285E-1,-1.7536312E-1,-1.5198949E-1,-4.526404E-2,-1.23230405E-1,-1.8269777E-1,-1.7592436E-1,-9.5579155E-2,-1.2328767E-1,3.4745762E-1,-1.7937608E-1,5.5555556E-2,1.858407E-1,6.2637365E-1,1.15384616E-1,-1.583851E-1,-1.8203034E-1,7.655954E-2,-1.8145533E-1,-1.289456E-1,6.5671647E-1,2E-1,-1.3320462E-1,2.1390375E-2,-1.7098704E-1,1.9672132E-1,-1.8613635E-1,-1.7859581E-1,-1.0013385E-1,-1.8557967E-1],"split_indices":[0,0,0,0,3,0,0,0,0,1,1,3,0,0,0,1,0,3,2,3,3,3,3,0,0,0,5,0,0,1,1,5,3,1,1,1,0,0,1,1,0,1,1,0,0,0,0,0,0,0,0,0,0,0,0,0,0,0,0,0,0,0,0,0,0,0,0,0,0,0,0,0,0],"split_type":[0,0,0,0,0,0,0,0,0,0,0,0,0,0,0,0,0,0,0,0,0,0,0,0,0,0,0,0,0,0,0,0,0,0,0,0,0,0,0,0,0,0,0,0,0,0,0,0,0,0,0,0,0,0,0,0,0,0,0,0,0,0,0,0,0,0,0,0,0,0,0,0,0],"sum_hessian":[8.838241E4,6.730401E4,2.1078402E4,6.695584E4,3.4816003E2,7.5980806E3,1.3480321E4,6.2465285E4,4.4905605E3,5.2800003E1,2.9536002E2,3.3536002E2,1.3144961E4,5.5595203E4,6.8700806E3,2.7683203E3,1.7222401E3,3.2320004E1,2.0480001E1,2.4128001E2,5.4080006E1,5.3760002E1,2.816E2,1.1738561E4,1.4064001E3,5.5214723E4,3.8048004E2,1.42592E3,1.3424001E3,8.000001E0,2.4320002E1,1.3440001E1,7.0400004E0,5.3440002E1,1.8784001E2,1.5040001E1,3.904E1,2.2400002E0,5.1520004E1,1.3056001E2,1.5104001E2,1.1403841E4,3.3472003E2,2.5217281E4,2.9997441E4,3.3376E2,4.6720005E1,1.07552E3,3.5040002E2,1.1814401E3,1.6096E2,1.9200001E0,6.0800004E0,2.2080002E1,2.2400002E0,3.5200002E0,9.920001E0,1.6000001E0,5.4400005E0,3.3280003E1,2.0160002E1,1.2928001E2,5.8560005E1,7.0400004E0,8.000001E0,3.0080002E1,2.1440002E1,1.1936001E2,1.1200001E1,2.5564802E3,8.84736E3,2.3808002E2,9.664001E1],"tree_param":{"num_deleted":"0","num_feature":"9","num_nodes":"73","size_leaf_vector":"1"}},{"base_weights":[-5.9610736E-1,-5.75979E-1,-5.999425E-1,-5.490835E-1,-6.0850686E-1,-6.0294753E-1,-5.890567E-1,-5.7229525E-1,-4.83852E-1,-6.148272E-1,-3.4226584E-1,-5.979064E-1,-6.1381304E-1,-6.071848E-1,-5.7339543E-1,-5.7950294E-1,-2.5117737E-1,-3.4554774E-1,-5.4533875E-1,-1.8550566E-1,-4.613466E-1,-5.7030773E-1,-1.6144127E-1,-5.853006E-1,-6.052042E-1,-6.1974573E-1,-6.05325E-1,-5.9970856E-1,-1.8741484E-1,-6.370735E-2,-5.791242E-1,-5.5477065E-1,-1.8499237E-1,3.282626E-1,-1.8510965E-1,1.4032495E-1,-4.7705165E-1,-6.001745E-1,-4.5648494E-1,-1.459854E-1,-1.8554768E-1,-3.3546326E-1,-1.8407597E-1,6.6294484E-2,-1.8106994E-1,-5.891085E-1,-4.3905562E-1,-6.1832947E-1,-5.971406E-1,-6.20014E-1,-4.6572933E-1,-9.1021925E-2,-6.11866E-1,-6.12067E-1,-4.4957772E-1,-3.317781E-1,9.1682416E-1,-5.868764E-1,-4.5729107E-1,-1.7231251E-1,-1.2411997E-1,-1.797005E-1,3.4323922E-1,-5.8478158E-2,2.0843092E-1,-3.7754115E-2,-1.5232223E-1,-1.8650371E-1,-1.713345E-1,-6.0789306E-2,-1.7686692E-1,-1.8053491E-1,1.15384616E-1,-1.6321245E-1,-0E0,-3.96536E-2,1.9944598E-1,-1.8478131E-1,-1.7387624E-1,-8.002884E-2,-1.7224881E-1,-1.8552917E-1,-1.11801244E-1,-1.459714E-1,-1.798784E-1,-1.74992E-1,-1.8638383E-1,-1.5028355E-1,-0E0,1.3704945E-1,-1.83747E-1,-1.8412685E-1,-1.6640064E-1,-1.7835218E-1,-1.8683445E-1,-5.882353E-2,-1.6671374E-1,1.6739607E-1,-1.7935872E-1,4.7560975E-1,-1.6216215E-1,-1.6868395E-1,-1.821377E-1,-1.5385355E-1,-6.777996E-2],"categories":[],"categories_nodes":[],"categories_segments":[],"categories_sizes":[],"default_left":[0,0,0,0,0,0,0,0,0,0,0,0,0,0,0,0,0,0,0,0,0,0,0,0,0,0,0,0,0,0,0,0,0,0,0,0,0,0,0,0,0,0,0,0,0,0,0,0,0,0,0,0,0,0,0,0,0,0,0,0,0,0,0,0,0,0,0,0,0,0,0,0,0,0,0,0,0,0,0,0,0,0,0,0,0,0,0,0,0,0,0,0,0,0,0,0,0,0,0,0,0,0,0,0,0],"id":4,"left_children":[1,3,5,7,9,11,13,15,17,19,21,23,25,27,29,31,33,35,37,-1,39,41,43,45,47,49,51,53,-1,55,57,59,-1,61,-1,63,65,67,69,71,-1,73,-1,75,-1,77,79,81,83,85,87,89,91,93,95,97,99,101,103,-1,-1,-1,-1,-1,-1,-1,-1,-1,-1,-1,-1,-1,-1,-1,-1,-1,-1,-1,-1,-1,-1,-1,-1,-1,-1,-1,-1,-1,-1,-1,-1,-1,-1,-1,-1,-1,-1,-1,-1,-1,-1,-1,-1,-1,-1],"loss_changes":[6.4765625E0,1.20625E1,2.0722656E0,1.148291E1,1.0566162E1,2.8164062E0,4.222168E0,1.3100342E1,1.7200623E1,3.0983887E0,6.124607E0,3.3027344E0,5.5078125E-1,6.010742E-1,2.523413E1,4.798218E0,2.7210188E1,4.0450607E1,6.614563E0,0E0,7.0638523E0,4.678192E-1,8.646799E0,7.8720703E0,2.2919922E0,1.5625E-1,2.5527344E1,9.454346E0,0E0,2.5884922E1,7.8146973E0,9.078369E0,0E0,3.848134E1,0E0,2.530342E1,5.299736E0,1.8930054E-1,1.8247787E1,1.2159328E1,0E0,8.760284E-1,0E0,6.896989E0,0E0,3.277832E0,8.563034E0,6.591797E-3,3.9414062E0,1.3720703E-1,3.7328768E-1,2.7900126E1,4.7143555E-1,5.406494E-1,1.0723022E1,1.8601418E1,2.1473331E1,3.6645508E0,6.5229034E0,0E0,0E0,0E0,0E0,0E0,0E0,0E0,0E0,0E0,0E0,0E0,0E0,0E0,0E0,0E0,0E0,0E0,0E0,0E0,0E0,0E0,0E0,0E0,0E0,0E0,0E0,0E0,0E0,0E0,0E0,0E0,0E0,0E0,0E0,0E0,0E0,0E0,0E0,0E0,0E0,0E0,0E0,0E0,0E0,0E0,0E0],"parents":[2147483647,0,0,1,1,2,2,3,3,4,4,5,5,6,6,7,7,8,8,9,9,10,10,11,11,12,12,13,13,14,14,15,15,16,16,17,17,18,18,20,20,21,21,22,22,23,23,24,24,25,25,26,26,27,27,29,29,30,30,31,31,33,33,35,35,36,36,37,37,38,38,39,39,41,41,43,43,45,45,46,46,47,47,48,48,49,49,50,50,51,51,52,52,53,53,54,54,55,55,56,56,57,57,58,58],"right_children":[2,4,6,8,10,12,14,16,18,20,22,24,26,28,30,32,34,36,38,-1,40,42,44,46,48,50,52,54,-1,56,58,60,-1,62,-1,64,66,68,70,72,-1,74,-1,76,-1,78,80,82,84,86,88,90,92,94,96,98,100,102,104,-1,-1,-1,-1,-1,-1,-1,-1,-1,-1,-1,-1,-1,-1,-1,-1,-1,-1,-1,-1,-1,-1,-1,-1,-1,-1,-1,-1,-1,-1,-1,-1,-1,-1,-1,-1,-1,-1,-1,-1,-1,-1,-1,-1,-1,-1],"split_conditions":[1.6965845E-1,9.995834E2,1.9977766E3,1.6477405E-1,1.6920549E-1,6.5E-1,2.122954E-1,9.96E-1,1.663176E-1,9.99E-1,5.63E-1,2.035687E-1,2.2004436E-1,2.0316912E-1,2.126152E-1,1.5885955E-1,1.5409622E-1,7.3E-2,2.96E-1,-1.8550566E-1,1.9977766E3,1.242217E3,9.85E-1,2.0301308E-1,2.2042611E-1,3.803E3,2.2042611E-1,2.0102869E-1,-1.8741484E-1,3.7526514E3,9.99E-1,1.5802564E-1,-1.8499237E-1,1.528194E-1,-1.8510965E-1,1.658969E-1,1.9497826E2,1.6818386E-1,7.7101044E2,1.5613542E-1,-1.8554768E-1,3.4E-1,-1.8407597E-1,2.8163E2,-1.8106994E-1,1.7880711E-1,2.0316912E-1,1.9929971E3,2.2107506E-1,1.7190033E-1,2.1734801E-1,9.854127E2,9.64E2,5.7E-1,2.0130944E-1,3.75E-1,6.42E-1,2.9794055E3,2.3972511E-1,-1.7231251E-1,-1.2411997E-1,-1.797005E-1,3.4323922E-1,-5.8478158E-2,2.0843092E-1,-3.7754115E-2,-1.5232223E-1,-1.8650371E-1,-1.713345E-1,-6.0789306E-2,-1.7686692E-1,-1.8053491E-1,1.15384616E-1,-1.6321245E-1,-0E0,-3.96536E-2,1.9944598E-1,-1.8478131E-1,-1.7387624E-1,-8.002884E-2,-1.7224881E-1,-1.8552917E-1,-1.11801244E-1,-1.459714E-1,-1.798784E-1,-1.74992E-1,-1.8638383E-1,-1.5028355E-1,-0E0,1.3704945E-1,-1.83747E-1,-1.8412685E-1,-1.6640064E-1,-1.7835218E-1,-1.8683445E-1,-5.882353E-2,-1.6671374E-1,1.6739607E-1,-1.7935872E-1,4.7560975E-1,-1.6216215E-1,-1.6868395E-1,-1.821377E-1,-1.5385355E-1,-6.777996E-2],"split_indices":[0,3,3,0,0,1,0,1,0,1,1,0,0,0,0,0,0,1,1,0,3,3,1,0,0,2,0,0,0,3,1,0,0,0,0,0,3,0,3,0,0,1,0,4,0,0,0,3,0,0,0,3,2,1,0,1,1,3,0,0,0,0,0,0,0,0,0,0,0,0,0,0,0,0,0,0,0,0,0,0,0,0,0,0,0,0,0,0,0,0,0,0,0,0,0,0,0,0,0,0,0,0,0,0,0],"split_type":[0,0,0,0,0,0,0,0,0,0,0,0,0,0,0,0,0,0,0,0,0,0,0,0,0,0,0,0,0,0,0,0,0,0,0,0,0,0,0,0,0,0,0,0,0,0,0,0,0,0,0,0,0,0,0,0,0,0,0,0,0,0,0,0,0,0,0,0,0,0,0,0,0,0,0,0,0,0,0,0,0,0,0,0,0,0,0,0,0,0,0,0,0,0,0,0,0,0,0,0,0,0,0,0,0],"sum_hessian":[8.838241E4,1.4168961E4,7.4213445E4,7.7657607E3,6.4032007E3,5.8116164E4,1.6097281E4,5.7219204E3,2.0438401E3,6.2534404E3,1.4976001E2,3.9736324E4,1.8379842E4,7.4435205E3,8.653761E3,5.5955205E3,1.2640001E2,6.3104004E2,1.4128E3,6.1100806E3,1.4336002E2,6.528001E1,8.448E1,1.4599361E4,2.513696E4,1.0776001E4,7.6038403E3,5.2428804E3,2.2006401E3,9.632001E1,8.55744E3,3.3683203E3,2.2272002E3,4.8960003E1,7.744E1,1.3440001E2,4.9664005E2,8.700801E2,5.4272003E2,4.8320004E1,9.504001E1,1.152E1,5.3760002E1,5.6320004E1,2.8160002E1,1.4225921E4,3.7344003E2,9.53728E3,1.5599681E4,1.0754241E4,2.1760002E1,9.568001E1,7.5081606E3,4.8412803E3,4.0160004E2,7.616E1,2.0160002E1,8.0419204E3,5.1552E2,2.9545603E3,4.1376004E2,2.304E1,2.5920002E1,8.416E1,5.024E1,4.0320004E1,4.5632004E2,4.8832004E2,3.8176004E2,1.8752002E2,3.552E2,2.5920002E1,2.2400002E1,6.7200003E0,4.8E0,4.2880005E1,1.3440001E1,3.7094402E3,1.051648E4,1.6544002E2,2.0800002E2,9.531841E3,5.4400005E0,3.4304004E2,1.5256641E4,3.7376004E2,1.038048E4,2.0160002E1,1.6000001E0,4.6720005E1,4.8960003E1,7.2585605E3,2.4960002E2,1.8560001E3,2.9852803E3,1.1936001E2,2.8224002E2,1.728E1,5.8880005E1,1.3760001E1,6.4000006E0,3.6441602E3,4.3977603E3,4.1472003E2,1.0080001E2],"tree_param":{"num_deleted":"0","num_feature":"9","num_nodes":"105","size_leaf_vector":"1"}},{"base_weights":[1.2461706E0,1.2434833E0,1.2709E0,1.250579E0,1.2305557E0,1.2729313E0,1.1069694E0,1.2312723E0,1.2540796E0,1.2613344E0,1.2195891E0,1.2785413E0,1.2096715E0,2.2115831E-1,4.0003833E-1,1.251228E0,1.1609918E0,1.2487391E0,1.2668531E0,3.8774517E-1,3.7687358E-1,9.015749E-1,1.22107E0,1.20428E0,1.2816374E0,8.776641E-1,3.7756023E-1,3.8455322E-1,-1.9334568E-1,1.2566634E0,1.0181835E0,9.928193E-1,1.196599E0,1.2583772E0,1.2366402E0,1.2688924E0,9.546195E-1,1.083142E0,-2.650639E-1,1.1992561E0,1.2327962E0,1.2572318E0,8.157631E-1,1.2718673E0,3.9079264E-1,1.116115E0,-2.2869098E-1,3.7917304E-1,3.6601955E-1,2.7539176E-1,4.1813356E-1,2.7393505E-1,3.667818E-1,3.713573E-1,3.465361E-1,3.7060577E-1,3.798279E-1,3.8073328E-1,3.6812544E-1,3.742451E-1,3.8271698E-1,3.3661586E-1,-1.1132445E-1,3.6707398E-1,2.907711E-1,-2.2028993E-1,1.9386384E-1,3.6116257E-1,2.7040562E-1,3.7292138E-1,3.6114433E-1,3.8786712E-1,3.4198487E-1,3.012297E-1,2.3116706E-2,3.8465106E-1,3.6713535E-1,6.343343E-2,3.8343665E-1],"categories":[],"categories_nodes":[],"categories_segments":[],"categories_sizes":[],"default_left":[0,0,0,0,0,0,0,0,0,0,0,0,0,0,0,0,0,0,0,0,0,0,0,0,0,0,0,0,0,0,0,0,0,0,0,0,0,0,0,0,0,0,0,0,0,0,0,0,0,0,0,0,0,0,0,0,0,0,0,0,0,0,0,0,0,0,0,0,0,0,0,0,0,0,0,0,0,0,0],"id":5,"left_children":[1,3,5,7,9,11,13,15,17,19,21,23,25,27,-1,29,31,33,35,-1,-1,37,39,41,43,45,-1,-1,-1,47,49,51,53,55,57,59,61,63,65,67,69,71,73,75,-1,77,-1,-1,-1,-1,-1,-1,-1,-1,-1,-1,-1,-1,-1,-1,-1,-1,-1,-1,-1,-1,-1,-1,-1,-1,-1,-1,-1,-1,-1,-1,-1,-1,-1],"loss_changes":[7.0625E0,9.25E0,2.8261719E0,3.5703125E0,1.2535156E1,2.9101562E0,3.247554E1,1.4943359E1,2.7890625E0,1.09375E-1,1.3394531E1,1.1035156E0,1.5788452E1,3.2465115E1,0E0,1.0236328E1,1.4374268E1,3.71875E0,1.078125E1,0E0,0E0,3.1312386E1,6.3554688E0,8.796997E0,6.09375E-1,5.4385315E1,0E0,0E0,0E0,8.1347656E-1,6.7178955E0,7.308197E0,2.232666E0,2.90625E0,4.6914062E0,1.1445312E0,2.843779E1,8.446655E-1,9.252647E0,1.3703125E1,4.4257812E0,2.756958E-1,8.286385E0,2.1845703E0,0E0,1.7306503E1,0E0,0E0,0E0,0E0,0E0,0E0,0E0,0E0,0E0,0E0,0E0,0E0,0E0,0E0,0E0,0E0,0E0,0E0,0E0,0E0,0E0,0E0,0E0,0E0,0E0,0E0,0E0,0E0,0E0,0E0,0E0,0E0,0E0],"parents":[2147483647,0,0,1,1,2,2,3,3,4,4,5,5,6,6,7,7,8,8,9,9,10,10,11,11,12,12,13,13,15,15,16,16,17,17,18,18,21,21,22,22,23,23,24,24,25,25,29,29,30,30,31,31,32,32,33,33,34,34,35,35,36,36,37,37,38,38,39,39,40,40,41,41,42,42,43,43,45,45],"right_children":[2,4,6,8,10,12,14,16,18,20,22,24,26,28,-1,30,32,34,36,-1,-1,38,40,42,44,46,-1,-1,-1,48,50,52,54,56,58,60,62,64,66,68,70,72,74,76,-1,78,-1,-1,-1,-1,-1,-1,-1,-1,-1,-1,-1,-1,-1,-1,-1,-1,-1,-1,-1,-1,-1,-1,-1,-1,-1,-1,-1,-1,-1,-1,-1,-1,-1],"split_conditions":[3.0324705E3,1.157364E3,1E0,1.6865139E-1,1.8213806E-1,2.4335805E-1,1.8893315E-1,1.6477405E-1,5.56E-1,1.5445535E-1,1.8247567E-1,1.5561742E-1,2.4378674E-1,1.6818386E-1,4.0003833E-1,9.96E-1,1.8073355E2,1.66E-1,2.4963662E-1,3.8774517E-1,3.7687358E-1,9.91E-1,2.0887762E-1,1.5520924E-1,4.980127E3,5.2936333E3,3.7756023E-1,3.8455322E-1,-1.9334568E-1,1.6214438E-1,2.8163E2,1.6767536E-1,2.96E-1,1.9174789E-1,1.9060096E-1,1.9499418E-1,2.8163E2,4.18E-1,1.9895375E3,2.0854558E-1,2.3848552E-1,1.5445535E-1,5.2936333E3,9.89E-1,3.9079264E-1,5.28E-1,-2.2869098E-1,3.7917304E-1,3.6601955E-1,2.7539176E-1,4.1813356E-1,2.7393505E-1,3.667818E-1,3.713573E-1,3.465361E-1,3.7060577E-1,3.798279E-1,3.8073328E-1,3.6812544E-1,3.742451E-1,3.8271698E-1,3.3661586E-1,-1.1132445E-1,3.6707398E-1,2.907711E-1,-2.2028993E-1,1.9386384E-1,3.6116257E-1,2.7040562E-1,3.7292138E-1,3.6114433E-1,3.8786712E-1,3.4198487E-1,3.012297E-1,2.3116706E-2,3.8465106E-1,3.6713535E-1,6.343343E-2,3.8343665E-1],"split_indices":[3,3,1,0,0,0,0,0,1,0,0,0,0,0,0,1,3,1,0,0,0,1,0,0,3,3,0,0,0,0,4,0,1,0,0,0,4,1,3,0,0,0,3,1,0,1,0,0,0,0,0,0,0,0,0,0,0,0,0,0,0,0,0,0,0,0,0,0,0,0,0,0,0,0,0,0,0,0,0],"split_type":[0,0,0,0,0,0,0,0,0,0,0,0,0,0,0,0,0,0,0,0,0,0,0,0,0,0,0,0,0,0,0,0,0,0,0,0,0,0,0,0,0,0,0,0,0,0,0,0,0,0,0,0,0,0,0,0,0,0,0,0,0,0,0,0,0,0,0,0,0,0,0,0,0,0,0,0,0,0,0],"sum_hessian":[1.3021537E5,1.17498125E5,1.271724E4,7.579843E4,4.169969E4,1.2554901E4,1.6233867E2,1.1688182E4,6.411025E4,1.0924547E4,3.0775145E4,1.1514569E4,1.0403313E3,3.345852E1,1.2888014E2,9.090267E3,2.597915E3,4.5278414E4,1.8831838E4,1.4986571E3,9.42589E3,1.4546774E2,3.0629678E4,4.7646188E2,1.1038108E4,1.3589877E2,9.0443256E2,1.4819355E1,1.8639162E1,8.87879E3,2.1147675E2,4.5899057E2,2.1389246E3,2.514489E4,2.0133523E4,1.8706596E4,1.2524165E2,1.2593907E2,1.952867E1,1.074474E4,1.9884938E4,4.17345E2,5.9116882E1,7.575831E3,3.4622769E3,1.1892634E2,1.6972437E1,7.38332E3,1.49547E3,1.6965567E2,4.1821064E1,3.4447983E2,1.1451073E2,1.0578501E3,1.0810743E3,6.3517495E3,1.879314E4,4.547778E3,1.5585745E4,4.569322E3,1.4137274E4,1.11334015E2,1.3907636E1,5.2037724E1,7.3901344E1,1.3019077E1,6.509593E0,1.0577687E4,1.6705347E2,1.4649369E4,5.235568E3,3.1235342E2,1.04991585E2,4.682057E1,1.2296311E1,6.2178413E3,1.3579899E3,1.8412651E1,1.0051369E2],"tree_param":{"num_deleted":"0","num_feature":"9","num_nodes":"79","size_leaf_vector":"1"}},{"base_weights":[-5.808632E-1,-1.7595705E-1,-5.741478E-1,-1.7715177E-1,-5.683819E-1,-2.0488098E-1,-5.704366E-1,3.355674E-1,-1.7575458E-1,-5.4672414E-1,-5.815223E-1,-1.0110465E-1,8.02056E-1,-5.585289E-1,2.7117593E-2,-5.857462E-1,-5.578172E-1,-5.1485732E-2,1.9544871E-1,4.5756647E-1,-1.6145E-1,-1.6994135E-1,-1.4934655E-1,-5.0847292E-2,3.7283543E-1,-1.7076269E-1,-1.765681E-1,-7.5145856E-2,-1.7220345E-1],"categories":[],"categories_nodes":[],"categories_segments":[],"categories_sizes":[],"default_left":[0,0,0,0,0,0,0,0,0,0,0,0,0,0,0,0,0,0,0,0,0,0,0,0,0,0,0,0,0],"id":6,"left_children":[1,-1,3,-1,5,7,9,11,-1,13,15,17,19,21,23,25,27,-1,-1,-1,-1,-1,-1,-1,-1,-1,-1,-1,-1],"loss_changes":[2.3984375E0,0E0,2.7734375E0,0E0,1.8108398E1,2.875691E1,6.0595703E0,1.1893475E1,0E0,5.2489746E1,1.3276367E0,1.7484345E0,2.8102863E1,3.3776855E0,3.775827E1,3.1640625E-1,1.2394165E1,0E0,0E0,0E0,0E0,0E0,0E0,0E0,0E0,0E0,0E0,0E0,0E0],"parents":[2147483647,0,0,2,2,4,4,5,5,6,6,7,7,9,9,10,10,11,11,12,12,13,13,14,14,15,15,16,16],"right_children":[2,-1,4,-1,6,8,10,12,-1,14,16,18,20,22,24,26,28,-1,-1,-1,-1,-1,-1,-1,-1,-1,-1,-1,-1],"split_conditions":[1.0066205E3,-1.7595705E-1,1.8247567E-1,-1.7715177E-1,1.8308453E-1,3.05E-1,2.0722748E-1,8.64E0,-1.7575458E-1,2.0700352E-1,2.4301653E-1,2.7379448E3,1.1433E2,9.94E-1,9.95E-1,2.126152E-1,2.4335805E-1,-5.1485732E-2,1.9544871E-1,4.5756647E-1,-1.6145E-1,-1.6994135E-1,-1.4934655E-1,-5.0847292E-2,3.7283543E-1,-1.7076269E-1,-1.765681E-1,-7.5145856E-2,-1.7220345E-1],"split_indices":[3,0,0,0,0,1,0,5,0,0,0,3,5,1,1,0,0,0,0,0,0,0,0,0,0,0,0,0,0],"split_type":[0,0,0,0,0,0,0,0,0,0,0,0,0,0,0,0,0,0,0,0,0,0,0,0,0,0,0,0,0],"sum_hessian":[7.197245E4,3.9007348E4,3.296511E4,8.564838E3,2.4400271E4,1.3771414E2,2.4262557E4,5.6988403E1,8.072574E1,7.745356E3,1.6517201E4,2.9839457E1,2.7148949E1,7.58926E3,1.5609612E2,1.3999034E4,2.518167E3,2.7989008E1,1.8504486E0,1.7544268E1,9.60468E0,6.7038677E3,8.853921E2,1.3510612E2,2.0989992E1,2.0653115E3,1.1933723E4,1.2687287E2,2.3912942E3],"tree_param":{"num_deleted":"0","num_feature":"9","num_nodes":"29","size_leaf_vector":"1"}},{"base_weights":[-5.550633E-1,-5.70927E-1,-5.4760474E-1,-1.7721693E-1,-5.641032E-1,-5.131064E-1,-5.56384E-1,-5.484984E-1,-5.8247244E-1,-5.1697916E-1,-9.0123005E-2,-5.616377E-1,-5.2123195E-1,-5.619275E-1,-4.5187E-1,-5.7485926E-1,-1.7733286E-1,-5.4689056E-1,-4.835061E-1,4.3748048E-1,-1.7576854E-1,-5.5734044E-1,-1.7746478E-1,-2.1964611E-1,-5.3901875E-1,-5.2737695E-1,-5.7762754E-1,-4.9020606E-1,-2.8265846E-1,-5.834284E-1,-4.578484E-1,-5.596147E-1,-5.0547004E-1,-4.923625E-1,-1.8575189E-1,-5.8140016E-1,-5.5057186E-1,-3.4318388E-1,2.7817073E0,-5.476928E-1,-4.0869334E-1,-1.6224046E-1,-1.4383249E-1,-1.7553248E-1,-1.5587045E-1,-1.4894842E-1,-6.0948424E-2,4.658241E-2,-1.5490618E-1,-1.771442E-1,-1.7110324E-1,-1.763299E-1,-1.2070827E-1,-1.6218509E-1,-1.7279732E-1,-7.164218E-2,-1.6607386E-1,-5.935074E-3,-1.4899383E-1,-1.7757079E-2,-1.7514125E-1,-1.7572623E-1,-8.932283E-2,-1.306557E-1,-1.6889247E-1,-3.0551603E-2,-1.5102941E-1,2.0235436E-1,8.787133E-1,-1.472805E-1,-1.6820051E-1,-1.4772841E-1,3.497522E-2],"categories":[],"categories_nodes":[],"categories_segments":[],"categories_sizes":[],"default_left":[0,0,0,0,0,0,0,0,0,0,0,0,0,0,0,0,0,0,0,0,0,0,0,0,0,0,0,0,0,0,0,0,0,0,0,0,0,0,0,0,0,0,0,0,0,0,0,0,0,0,0,0,0,0,0,0,0,0,0,0,0,0,0,0,0,0,0,0,0,0,0,0,0],"id":7,"left_children":[1,3,5,-1,7,9,11,13,15,17,19,21,23,25,27,29,-1,31,33,-1,-1,35,-1,37,39,41,43,45,47,49,51,53,55,57,59,61,63,65,67,69,71,-1,-1,-1,-1,-1,-1,-1,-1,-1,-1,-1,-1,-1,-1,-1,-1,-1,-1,-1,-1,-1,-1,-1,-1,-1,-1,-1,-1,-1,-1,-1,-1],"loss_changes":[8.25E0,2.7895508E0,1.4629883E1,0E0,4.6152344E0,1.6338135E1,6.9541016E0,1.1845703E1,1.7895508E-1,9.659668E0,7.144857E1,4.0566406E0,2.7326904E1,4.134033E0,7.275223E0,3.9744873E0,0E0,2.4718018E0,1.2265747E1,0E0,0E0,4.541992E0,0E0,1.0723187E2,5.2369385E0,1.3933105E0,2.1351318E0,1.578659E0,2.1926647E1,2.6489258E-2,1.8778915E0,9.296875E-1,1.5758209E1,9.200806E0,6.8652663E0,7.899658E0,3.3035156E1,1.063036E1,1.576477E0,3.0582275E0,1.3489765E1,0E0,0E0,0E0,0E0,0E0,0E0,0E0,0E0,0E0,0E0,0E0,0E0,0E0,0E0,0E0,0E0,0E0,0E0,0E0,0E0,0E0,0E0,0E0,0E0,0E0,0E0,0E0,0E0,0E0,0E0,0E0,0E0],"parents":[2147483647,0,0,1,1,2,2,4,4,5,5,6,6,7,7,8,8,9,9,10,10,11,11,12,12,13,13,14,14,15,15,17,17,18,18,21,21,23,23,24,24,25,25,26,26,27,27,28,28,29,29,30,30,31,31,32,32,33,33,34,34,35,35,36,36,37,37,38,38,39,39,40,40],"right_children":[2,4,6,-1,8,10,12,14,16,18,20,22,24,26,28,30,-1,32,34,-1,-1,36,-1,38,40,42,44,46,48,50,52,54,56,58,60,62,64,66,68,70,72,-1,-1,-1,-1,-1,-1,-1,-1,-1,-1,-1,-1,-1,-1,-1,-1,-1,-1,-1,-1,-1,-1,-1,-1,-1,-1,-1,-1,-1,-1,-1,-1],"split_conditions":[1.8838686E-1,1.6031401E-1,2.035687E-1,-1.7721693E-1,1.7557587E-1,1E0,2.4335805E-1,1.7380674E-1,1.8247567E-1,9.97643E2,1.8893315E-1,2.9794055E3,2.4378674E-1,1.6440602E-1,2.8163E2,1.8213806E-1,-1.7733286E-1,2.0064501E-1,2.0316912E-1,4.3748048E-1,-1.7576854E-1,2.122954E-1,-1.7746478E-1,4.9963726E3,2.4963662E-1,1.6349466E-1,9.91E-1,1.5037E2,9.783147E2,1.7980313E-1,2.02E-1,1.9453825E-1,2.0102869E-1,9.986661E2,1.1433E2,2.9601702E3,2.1477024E-1,4.96E-1,5.28E-1,2.4494037E-1,2.8163E2,-1.6224046E-1,-1.4383249E-1,-1.7553248E-1,-1.5587045E-1,-1.4894842E-1,-6.0948424E-2,4.658241E-2,-1.5490618E-1,-1.771442E-1,-1.7110324E-1,-1.763299E-1,-1.2070827E-1,-1.6218509E-1,-1.7279732E-1,-7.164218E-2,-1.6607386E-1,-5.935074E-3,-1.4899383E-1,-1.7757079E-2,-1.7514125E-1,-1.7572623E-1,-8.932283E-2,-1.306557E-1,-1.6889247E-1,-3.0551603E-2,-1.5102941E-1,2.0235436E-1,8.787133E-1,-1.472805E-1,-1.6820051E-1,-1.4772841E-1,3.497522E-2],"split_indices":[0,0,0,0,0,1,0,0,0,3,0,3,0,0,4,0,0,0,0,0,0,0,0,3,0,0,1,8,3,0,1,0,0,3,5,3,0,1,1,0,4,0,0,0,0,0,0,0,0,0,0,0,0,0,0,0,0,0,0,0,0,0,0,0,0,0,0,0,0,0,0,0,0],"split_type":[0,0,0,0,0,0,0,0,0,0,0,0,0,0,0,0,0,0,0,0,0,0,0,0,0,0,0,0,0,0,0,0,0,0,0,0,0,0,0,0,0,0,0,0,0,0,0,0,0,0,0,0,0,0,0,0,0,0,0,0,0,0,0,0,0,0,0,0,0,0,0,0,0],"sum_hessian":[7.236087E4,2.3117209E4,4.9243656E4,5.9039917E3,1.7213219E4,1.0001674E4,3.924198E4,9.323595E3,7.889623E3,9.910713E3,9.096151E1,3.412664E4,5.11534E3,8.1817134E3,1.141882E3,4.229274E3,3.6603494E3,5.225702E3,4.6850103E3,2.1590097E1,6.937141E1,2.9856896E4,4.2697456E3,2.8563116E2,4.8297085E3,2.5670623E3,5.614651E3,9.294186E2,2.124633E2,3.9369685E3,2.9230515E2,3.9880725E3,1.2376298E3,4.54905E3,1.3596063E2,6.536662E3,2.3320234E4,2.7518982E2,1.0441344E1,4.5253164E3,3.0439233E2,1.9973977E3,5.696645E2,4.965757E3,6.4889435E2,9.087792E2,2.0639389E1,7.404409E1,1.3841922E2,2.5294873E3,1.4074813E3,8.460924E1,2.076959E2,1.8620096E3,2.1260627E3,1.9006969E2,1.04756E3,4.0913673E1,4.508136E3,1.0403209E2,3.192854E1,6.436797E3,9.9865074E1,2.2728564E3,2.1047377E4,1.1046158E2,1.6472824E2,1.0468917E0,9.394453E0,8.492725E2,3.676044E3,2.6259454E2,4.1797775E1],"tree_param":{"num_deleted":"0","num_feature":"9","num_nodes":"73","size_leaf_vector":"1"}},{"base_weights":[-5.531503E-1,-5.482747E-1,-5.6876427E-1,-5.500345E-1,-2.2801584E-1,-1.7721298E-1,-5.564108E-1,-5.5335546E-1,-5.040505E-1,3.364966E-1,-3.4398273E-1,-4.335361E-1,-5.595791E-1,-5.487748E-1,-1.771977E-1,-4.514161E-1,-1.7711681E-1,-1.1672017E-1,8.9439404E-1,-1.8556367E-1,-1.757662E-1,-1.0039534E-1,-5.012297E-1,-5.558898E-1,-1.7702629E-1,-5.497915E-1,-4.0364188E-1,-3.9923128E-1,-5.0751585E-1,6.8759316E-1,-4.7168368E-1,1.3028567E0,-2.3447E-1,-3.5973212E-1,1.1962779E0,7.3070335E-1,-1.5888566E-1,-4.0172562E-1,-1.7584632E-1,-5.6205076E-1,-3.5251972E-1,-1.67335E-1,-1.629261E-1,-1.3569617E-1,-2.3052737E-2,-1.0341077E-1,-1.7152144E-1,-1.6345157E-1,-7.382411E-2,3.0091214E-1,-1.2649506E-1,-1.6814858E-1,6.538085E-2,1.7506061E-1,4.350442E-1,1.1764593E-1,-1.4572504E-1,-1.7448229E-1,-5.433376E-2,4.2085797E-1,9.919251E-2,3.4797597E-1,1.6272264E-2,-1.1512648E-1,3.9275225E-2,-1.5774803E-1,1.8113215E-1,-1.75603E-1,-1.6658206E-1,-1.203992E-1,3.5681188E-2],"categories":[],"categories_nodes":[],"categories_segments":[],"categories_sizes":[],"default_left":[0,0,0,0,0,0,0,0,0,0,0,0,0,0,0,0,0,0,0,0,0,0,0,0,0,0,0,0,0,0,0,0,0,0,0,0,0,0,0,0,0,0,0,0,0,0,0,0,0,0,0,0,0,0,0,0,0,0,0,0,0,0,0,0,0,0,0,0,0,0,0],"id":8,"left_children":[1,3,5,7,9,-1,11,13,15,17,19,21,23,25,-1,27,-1,29,31,33,-1,35,37,39,-1,41,43,45,47,49,51,53,55,57,59,61,63,65,-1,67,69,-1,-1,-1,-1,-1,-1,-1,-1,-1,-1,-1,-1,-1,-1,-1,-1,-1,-1,-1,-1,-1,-1,-1,-1,-1,-1,-1,-1,-1,-1],"loss_changes":[5.1972656E0,3.0976562E1,4.333496E0,8.105469E0,1.9972488E1,0E0,4.0478516E0,8.421875E0,1.65849E1,1.330234E1,9.553198E0,6.2972717E0,8.8061523E-1,6.506836E0,0E0,6.5542603E0,0E0,8.799469E0,1.1146826E1,3.744932E1,0E0,2.4876366E0,1.7392502E0,1.1829346E1,0E0,2.1220703E0,5.071575E0,1.1094681E1,1.0683044E1,3.7457504E0,1.4198871E0,9.9915314E-1,1.3075798E0,5.338667E0,2.6562996E0,9.202827E-1,3.073997E0,1.41415615E1,0E0,1.1455078E0,6.604683E0,0E0,0E0,0E0,0E0,0E0,0E0,0E0,0E0,0E0,0E0,0E0,0E0,0E0,0E0,0E0,0E0,0E0,0E0,0E0,0E0,0E0,0E0,0E0,0E0,0E0,0E0,0E0,0E0,0E0,0E0],"parents":[2147483647,0,0,1,1,2,2,3,3,4,4,6,6,7,7,8,8,9,9,10,10,11,11,12,12,13,13,15,15,17,17,18,18,19,19,21,21,22,22,23,23,25,25,26,26,27,27,28,28,29,29,30,30,31,31,32,32,33,33,34,34,35,35,36,36,37,37,39,39,40,40],"right_children":[2,4,6,8,10,-1,12,14,16,18,20,22,24,26,-1,28,-1,30,32,34,-1,36,38,40,-1,42,44,46,48,50,52,54,56,58,60,62,64,66,-1,68,70,-1,-1,-1,-1,-1,-1,-1,-1,-1,-1,-1,-1,-1,-1,-1,-1,-1,-1,-1,-1,-1,-1,-1,-1,-1,-1,-1,-1,-1,-1],"split_conditions":[2.2886306E-1,2.2852688E-1,2.3621583E-1,2.2354816E-1,3.458576E2,-1.7721298E-1,2.3647247E-1,2.1734801E-1,2.2688529E-1,1.51E-1,9.955627E2,1.313023E2,2.4863543E-1,2.1693811E-1,-1.771977E-1,4.41E-1,-1.7711681E-1,6.5555984E1,2.09E2,9.807151E2,-1.757662E-1,1.731754E0,9.707032E2,2.4832088E-1,-1.7702629E-1,1.843157E-1,1.1495E2,2.2603355E-1,2.265548E-1,6.5E-2,1.29E-1,8.64E0,9.041145E0,4.13E-1,1.0085E2,2.8E1,6.9E-2,4.83E-1,-1.7584632E-1,1.51E-1,2.8163E2,-1.67335E-1,-1.629261E-1,-1.3569617E-1,-2.3052737E-2,-1.0341077E-1,-1.7152144E-1,-1.6345157E-1,-7.382411E-2,3.0091214E-1,-1.2649506E-1,-1.6814858E-1,6.538085E-2,1.7506061E-1,4.350442E-1,1.1764593E-1,-1.4572504E-1,-1.7448229E-1,-5.433376E-2,4.2085797E-1,9.919251E-2,3.4797597E-1,1.6272264E-2,-1.1512648E-1,3.9275225E-2,-1.5774803E-1,1.8113215E-1,-1.75603E-1,-1.6658206E-1,-1.203992E-1,3.5681188E-2],"split_indices":[0,0,0,0,3,0,0,0,0,1,3,3,0,0,0,1,0,3,2,3,0,3,3,0,0,0,5,0,0,1,1,5,3,1,7,2,1,1,0,1,4,0,0,0,0,0,0,0,0,0,0,0,0,0,0,0,0,0,0,0,0,0,0,0,0,0,0,0,0,0,0],"split_type":[0,0,0,0,0,0,0,0,0,0,0,0,0,0,0,0,0,0,0,0,0,0,0,0,0,0,0,0,0,0,0,0,0,0,0,0,0,0,0,0,0,0,0,0,0,0,0,0,0,0,0,0,0,0,0,0,0,0,0,0,0,0,0,0,0,0,0,0,0,0,0],"sum_hessian":[7.238638E4,5.5189277E4,1.7197105E4,5.488696E4,3.0231964E2,6.176991E3,1.1020115E4,5.117977E4,3.707189E3,5.1197052E1,2.5112257E2,2.8047134E2,1.0739644E4,4.559648E4,5.5832896E3,2.307006E3,1.400183E3,2.868507E1,2.2511982E1,1.5281429E2,9.830829E1,4.778581E1,2.3268555E2,9.598195E3,1.141449E3,4.5276492E4,3.1998816E2,1.1994116E3,1.1075944E3,8.496265E0,2.0188805E1,1.6417444E1,6.094538E0,1.3636624E2,1.6448044E1,2.386264E0,4.5399544E1,1.0978442E2,1.2290112E2,9.314262E3,2.83933E2,2.061793E4,2.4658562E4,2.7816916E2,4.181898E1,9.136188E2,2.8579288E2,9.6827826E2,1.3931609E2,6.6896124E0,1.8066527E0,1.8051332E1,2.1374726E0,3.6336455E0,1.2783799E1,1.5839598E0,4.510578E0,5.9812714E1,7.655353E1,1.2777994E1,3.6700497E0,1.0226846E0,1.3635795E0,2.538115E1,2.0018396E1,9.814783E1,1.163659E1,2.0800366E3,7.234225E3,2.5742953E2,2.6503475E1],"tree_param":{"num_deleted":"0","num_feature":"9","num_nodes":"71","size_leaf_vector":"1"}},{"base_weights":[-5.564922E-1,-5.330804E-1,-5.609811E-1,-5.022226E-1,-5.710409E-1,-5.594861E-1,-1.77389E-1,-5.291012E-1,-4.2812333E-1,-5.785449E-1,-2.7281752E-1,-5.601711E-1,-4.2529044E-1,-5.372479E-1,-1.9735499E-1,-2.7805755E-1,-4.9774352E-1,-5.8266276E-1,-4.0800956E-1,-5.268946E-1,-8.723661E-2,-5.8147854E-1,-5.579822E-1,-3.0987185E-1,-1.7613278E-1,-5.081424E-1,-1.7442876E-1,3.238612E-1,-1.7593178E-1,1.5837616E-1,-4.3121722E-1,-1.7768973E-1,-4.24765E-1,-1.7531973E-1,-5.413206E-1,-8.24623E-2,-1.757642E-1,-2.7178365E-1,-1.7329589E-1,1.2911537E-1,-1.6990608E-1,-5.6225985E-1,-1.7646852E-1,-3.458308E-1,-5.591123E-1,-5.22305E-1,1.9488163E-1,-1.5927625E-1,-1.0509945E-1,-1.6830537E-1,2.6348287E-1,-3.3722643E-2,1.6985402E-1,-1.4276022E-1,-4.798035E-2,-4.0023856E-2,-1.5519018E-1,-1.6824098E-1,-1.1904035E-1,-1.7271566E-1,1.1250196E-1,-1.5069085E-1,1.711604E-2,-9.1353714E-2,1.21772E-1,-1.7688805E-1,-1.3696077E-1,2.0182077E-2,-1.4385863E-1,-1.6145149E-1,-1.6854316E-1,-1.6318943E-1,-3.447012E-2,1.01323724E-1,-1.5808983E-1],"categories":[],"categories_nodes":[],"categories_segments":[],"categories_sizes":[],"default_left":[0,0,0,0,0,0,0,0,0,0,0,0,0,0,0,0,0,0,0,0,0,0,0,0,0,0,0,0,0,0,0,0,0,0,0,0,0,0,0,0,0,0,0,0,0,0,0,0,0,0,0,0,0,0,0,0,0,0,0,0,0,0,0,0,0,0,0,0,0,0,0,0,0,0,0],"id":9,"left_children":[1,3,5,7,9,11,-1,13,15,17,19,21,23,25,27,29,31,33,35,37,39,41,43,45,-1,47,-1,49,-1,51,53,-1,55,-1,57,59,-1,61,-1,63,-1,65,-1,67,69,71,73,-1,-1,-1,-1,-1,-1,-1,-1,-1,-1,-1,-1,-1,-1,-1,-1,-1,-1,-1,-1,-1,-1,-1,-1,-1,-1,-1,-1],"loss_changes":[7.3046875E0,1.3370605E1,2.4199219E0,1.2599121E1,1.1525391E1,5.080078E0,0E0,1.2653809E1,1.7824707E1,3.3377686E0,6.0853043E0,2.3574219E0,5.383507E0,5.6295166E0,2.345921E1,3.664153E1,7.844208E0,4.0405273E-2,7.0961647E0,5.5116653E-1,7.9867578E0,3.618164E-1,1.2326172E1,1.8978638E1,0E0,9.827332E0,0E0,2.4868979E1,0E0,1.5839661E1,4.8329697E0,0E0,1.787835E1,0E0,3.796234E-1,1.0315488E1,0E0,8.597658E-1,0E0,6.533923E0,0E0,3.8109436E0,0E0,1.5459019E1,2.6328125E0,1.0332375E0,5.630662E0,0E0,0E0,0E0,0E0,0E0,0E0,0E0,0E0,0E0,0E0,0E0,0E0,0E0,0E0,0E0,0E0,0E0,0E0,0E0,0E0,0E0,0E0,0E0,0E0,0E0,0E0,0E0,0E0],"parents":[2147483647,0,0,1,1,2,2,3,3,4,4,5,5,7,7,8,8,9,9,10,10,11,11,12,12,13,13,14,14,15,15,16,16,17,17,18,18,19,19,20,20,21,21,22,22,23,23,25,25,27,27,29,29,30,30,32,32,34,34,35,35,37,37,39,39,41,41,43,43,44,44,45,45,46,46],"right_children":[2,4,6,8,10,12,-1,14,16,18,20,22,24,26,28,30,32,34,36,38,40,42,44,46,-1,48,-1,50,-1,52,54,-1,56,-1,58,60,-1,62,-1,64,-1,66,-1,68,70,72,74,-1,-1,-1,-1,-1,-1,-1,-1,-1,-1,-1,-1,-1,-1,-1,-1,-1,-1,-1,-1,-1,-1,-1,-1,-1,-1,-1,-1],"split_conditions":[1.6965845E-1,9.995834E2,2.4635178E-1,1.6477405E-1,1.6920549E-1,2.4598628E-1,-1.77389E-1,9.96E-1,1.663176E-1,9.99E-1,5.63E-1,1.7880711E-1,7.65E-1,1.5885955E-1,1.5409622E-1,8.6E-2,1.6767536E-1,1.6818386E-1,1.9977766E3,1.242217E3,9.85E-1,1.7190033E-1,1.7911835E-1,1.5765537E3,-1.7613278E-1,1.5802564E-1,-1.7442876E-1,1.528194E-1,-1.7593178E-1,1.658969E-1,2.8163E2,-1.7768973E-1,1.6818386E-1,-1.7531973E-1,9.9E-1,1.6220292E3,-1.757642E-1,3.4E-1,-1.7329589E-1,1.9682722E3,-1.6990608E-1,1.7149282E-1,-1.7646852E-1,1.46E-1,1.8838686E-1,1.1823E2,2.8163E2,-1.5927625E-1,-1.0509945E-1,-1.6830537E-1,2.6348287E-1,-3.3722643E-2,1.6985402E-1,-1.4276022E-1,-4.798035E-2,-4.0023856E-2,-1.5519018E-1,-1.6824098E-1,-1.1904035E-1,-1.7271566E-1,1.1250196E-1,-1.5069085E-1,1.711604E-2,-9.1353714E-2,1.21772E-1,-1.7688805E-1,-1.3696077E-1,2.0182077E-2,-1.4385863E-1,-1.6145149E-1,-1.6854316E-1,-1.6318943E-1,-3.447012E-2,1.01323724E-1,-1.5808983E-1],"split_indices":[0,3,0,0,0,0,0,1,0,1,1,0,1,0,0,1,0,0,3,3,1,0,0,3,0,0,0,0,0,0,4,0,0,0,1,3,0,1,0,3,0,0,0,1,0,8,4,0,0,0,0,0,0,0,0,0,0,0,0,0,0,0,0,0,0,0,0,0,0,0,0,0,0,0,0],"split_type":[0,0,0,0,0,0,0,0,0,0,0,0,0,0,0,0,0,0,0,0,0,0,0,0,0,0,0,0,0,0,0,0,0,0,0,0,0,0,0,0,0,0,0,0,0,0,0,0,0,0,0,0,0,0,0,0,0,0,0,0,0,0,0,0,0,0,0,0,0,0,0,0,0,0,0],"sum_hessian":[7.2342445E4,1.1658273E4,6.068417E4,6.438612E3,5.219662E3,5.785071E4,2.8334604E3,4.720257E3,1.7183551E3,5.0906294E3,1.2903236E2,5.7553727E4,2.9698523E2,4.606515E3,1.1374174E2,5.4614276E2,1.1722124E3,4.9682476E3,1.2238175E2,5.3688618E1,7.534375E1,5.337141E3,5.2216586E4,1.750467E2,1.2193853E2,2.7845964E3,1.8219186E3,4.86876E1,6.505414E1,1.4186359E2,4.0427917E2,5.0752045E2,6.6469196E2,4.7553857E3,2.1286198E2,4.3757866E1,7.8623886E1,9.964009E0,4.3724606E1,5.240848E1,2.2935274E1,1.4091683E3,3.9279727E3,2.7831238E2,5.1938273E4,1.231728E2,5.187391E1,2.4312988E3,3.5329758E2,1.8749838E1,2.9937761E1,8.5689476E1,5.617412E1,3.4649567E2,5.7783493E1,1.6081168E2,5.0388025E2,1.850368E2,2.782519E1,2.0930973E1,2.282689E1,5.547574E0,4.4164357E0,2.0380209E1,3.202827E1,1.1157706E3,2.9339774E2,6.817129E1,2.101411E2,5.9511665E3,4.5987105E4,1.166366E2,6.5362005E0,4.3747715E1,8.126195E0],"tree_param":{"num_deleted":"0","num_feature":"9","num_nodes":"75","size_leaf_vector":"1"}},{"base_weights":[9.1004324E-1,9.07901E-1,9.297735E-1,9.098292E-1,8.6505955E-1,9.332302E-1,8.9045995E-1,9.1413975E-1,9.0191007E-1,2.8228208E-1,8.464E-1,9.253658E-1,2.8832486E-1,6.602508E-1,9.2303026E-1,8.966576E-1,9.173274E-1,9.2529315E-1,8.9363897E-1,1.6803505E-1,8.5556227E-1,9.293745E-1,6.3739276E-1,8.1740385E-1,-1.9602904E-1,8.820555E-1,2.8574252E-1,9.12651E-1,8.404505E-1,9.123694E-1,9.2801315E-1,2.861223E-1,9.2116314E-1,7.056101E-1,8.9576524E-1,-2.8629994E-1,2.8136852E-1,8.1803334E-1,9.0924853E-1,9.3125886E-1,7.7807033E-1,-4.477315E-1,8.6224264E-1,1.1570205E-1,2.823173E-1,2.770845E-1,7.400611E-1,2.7515924E-1,2.1801896E-1,2.1396719E-1,2.606758E-1,2.760421E-1,2.704355E-1,2.7889913E-1,2.0238389E-1,2.7093312E-1,2.7963862E-1,2.2519243E-1,3.523946E-2,2.617579E-1,2.7119678E-1,2.526142E-1,8.235408E-3,2.3975134E-1,2.80369E-1,2.777989E-1,2.8896043E-1,5.762548E-2,2.9302943E-1,1.8548436E-1,-2.909023E-1,2.8602502E-1,2.0265798E-1,1.5238197E-1,-3.782066E-2,1.4324233E-1,2.7216837E-1],"categories":[],"categories_nodes":[],"categories_segments":[],"categories_sizes":[],"default_left":[0,0,0,0,0,0,0,0,0,0,0,0,0,0,0,0,0,0,0,0,0,0,0,0,0,0,0,0,0,0,0,0,0,0,0,0,0,0,0,0,0,0,0,0,0,0,0,0,0,0,0,0,0,0,0,0,0,0,0,0,0,0,0,0,0,0,0,0,0,0,0,0,0,0,0,0,0],"id":10,"left_children":[1,3,5,7,9,11,13,15,17,-1,19,21,-1,23,25,27,29,31,33,35,37,39,41,43,-1,45,-1,47,49,51,53,-1,55,57,59,-1,-1,61,63,65,67,69,71,73,-1,-1,75,-1,-1,-1,-1,-1,-1,-1,-1,-1,-1,-1,-1,-1,-1,-1,-1,-1,-1,-1,-1,-1,-1,-1,-1,-1,-1,-1,-1,-1,-1],"loss_changes":[4.9921875E0,9.4765625E0,9.9902344E-1,3.2578125E0,6.821533E0,1.8173828E0,7.7142334E0,3.4648438E0,7.3046875E0,0E0,2.6757568E1,1.0563477E1,0E0,2.9665855E1,3.3026123E-1,9.951172E0,2.6015625E0,4.0820312E-1,1.1794922E1,5.1809353E1,7.8603516E0,1.9912109E0,3.353167E1,1.0865196E1,0E0,1.7897949E0,0E0,7.1694336E0,8.992065E0,2.953125E0,7.9785156E0,0E0,1.0576172E0,9.242371E0,5.0839844E0,0E0,0E0,4.788257E1,4.1240234E0,6.8896484E-1,1.416626E1,1.3939623E1,1.2774429E0,1.9690776E0,0E0,0E0,3.9532585E0,0E0,0E0,0E0,0E0,0E0,0E0,0E0,0E0,0E0,0E0,0E0,0E0,0E0,0E0,0E0,0E0,0E0,0E0,0E0,0E0,0E0,0E0,0E0,0E0,0E0,0E0,0E0,0E0,0E0,0E0],"parents":[2147483647,0,0,1,1,2,2,3,3,4,4,5,5,6,6,7,7,8,8,10,10,11,11,13,13,14,14,15,15,16,16,17,17,18,18,19,19,20,20,21,21,22,22,23,23,25,25,27,27,28,28,29,29,30,30,32,32,33,33,34,34,37,37,38,38,39,39,40,40,41,41,42,42,43,43,46,46],"right_children":[2,4,6,8,10,12,14,16,18,-1,20,22,-1,24,26,28,30,32,34,36,38,40,42,44,-1,46,-1,48,50,52,54,-1,56,58,60,-1,-1,62,64,66,68,70,72,74,-1,-1,76,-1,-1,-1,-1,-1,-1,-1,-1,-1,-1,-1,-1,-1,-1,-1,-1,-1,-1,-1,-1,-1,-1,-1,-1,-1,-1,-1,-1,-1,-1],"split_conditions":[3.0324705E3,2.9383542E3,2.4335805E-1,1.0637141E3,1.7190033E-1,2.2603355E-1,2.4378674E-1,1.6865139E-1,1.8213806E-1,2.8228208E-1,1.7236055E-1,2.247027E-1,2.8832486E-1,5.2936333E3,2.4635178E-1,1.6477405E-1,5.09E-1,1.5409622E-1,1.8308453E-1,9.92E-1,2.2107506E-1,1E0,2.252074E-1,5.28E-1,-1.9602904E-1,2.4598628E-1,2.8574252E-1,9.96E-1,1.8073355E2,1.66E-1,2.4963662E-1,2.861223E-1,1.6440602E-1,9.95E-1,2.035687E-1,-2.8629994E-1,2.8136852E-1,2.2042611E-1,2.9601702E3,9.95E-1,1.8893315E-1,6.92E-1,2.2553761E-1,3.85E-1,2.823173E-1,2.770845E-1,4.5511235E3,2.7515924E-1,2.1801896E-1,2.1396719E-1,2.606758E-1,2.760421E-1,2.704355E-1,2.7889913E-1,2.0238389E-1,2.7093312E-1,2.7963862E-1,2.2519243E-1,3.523946E-2,2.617579E-1,2.7119678E-1,2.526142E-1,8.235408E-3,2.3975134E-1,2.80369E-1,2.777989E-1,2.8896043E-1,5.762548E-2,2.9302943E-1,1.8548436E-1,-2.909023E-1,2.8602502E-1,2.0265798E-1,1.5238197E-1,-3.782066E-2,1.4324233E-1,2.7216837E-1],"split_indices":[3,3,0,3,0,0,0,0,0,0,0,0,0,3,0,0,1,0,0,1,0,1,0,1,0,0,0,1,3,1,0,0,0,1,0,0,0,0,3,1,0,1,0,1,0,0,3,0,0,0,0,0,0,0,0,0,0,0,0,0,0,0,0,0,0,0,0,0,0,0,0,0,0,0,0,0,0],"split_type":[0,0,0,0,0,0,0,0,0,0,0,0,0,0,0,0,0,0,0,0,0,0,0,0,0,0,0,0,0,0,0,0,0,0,0,0,0,0,0,0,0,0,0,0,0,0,0,0,0,0,0,0,0,0,0,0,0,0,0,0,0,0,0,0,0,0,0,0,0,0,0,0,0,0,0,0,0],"sum_hessian":[1.3790844E5,1.244435E5,1.3464934E4,1.1906432E5,5.379185E3,1.2355799E4,1.1091348E3,7.702439E4,4.203992E4,1.0519393E3,4.3272456E3,9.661902E3,2.6938967E3,1.4010863E2,9.690262E2,1.1921997E4,6.51024E4,1.0955825E4,3.1084098E4,5.792405E1,4.269322E3,9.527054E3,1.3484827E2,1.2547596E2,1.4632671E1,4.1812656E2,5.508996E2,9.269244E3,2.652753E3,4.4528375E4,2.0574023E4,1.3597638E3,9.596062E3,3.512959E2,3.0732803E4,2.3469122E1,3.4454926E1,2.5223394E3,1.7469823E3,9.404772E3,1.2228128E2,2.297582E1,1.11872444E2,1.9088663E1,1.063873E2,3.1919794E2,9.892864E1,9.044148E3,2.2509526E2,4.8981693E2,2.162936E3,2.5964277E4,1.8564096E4,2.0438229E4,1.3579483E2,3.657703E3,5.938359E3,3.260552E2,2.5240692E1,8.061115E3,2.2671688E4,2.4479187E3,7.4420616E1,3.3272992E2,1.4142523E3,8.1002397E3,1.3045328E3,3.1461723E1,9.081956E1,7.491221E0,1.5484599E1,7.2408775E1,3.946367E1,6.8593917E0,1.2229271E1,3.9981575E1,5.894707E1],"tree_param":{"num_deleted":"0","num_feature":"9","num_nodes":"77","size_leaf_vector":"1"}},{"base_weights":[-5.55888E-1,-5.6262785E-1,-5.4793096E-1,-1.699864E-1,-5.59252E-1,-1.702545E-1,-5.410934E-1,-5.1722467E-1,-5.6378716E-1,-1.5198444E-1,-5.434634E-1,-5.3530353E-1,-2.1135385E-1,-1.7016198E-1,-5.5489725E-1,3.4453854E-1,-1.6862237E-1,-5.1544005E-1,-5.567151E-1,-5.5807716E-1,-4.606683E-1,-1.28083285E-2,-1.66775E-1,-1.384995E-1,-1.6927053E-1,-4.2200595E-2,7.15827E-1,-5.289889E-1,6.556094E-2,-5.6180835E-1,-5.2838874E-1,-1.4593665E-1,-1.7007893E-1,-5.633597E-2,-1.694708E-1,-1.4782685E-1,1.4928114E-1,5.413713E-2,-1.6633482E-1,2.4927517E-2,-1.493115E-1,3.6463013E-1,-1.5258309E-1,-1.615605E-1,-1.3724995E-1,-3.3123415E-2,2.9787767E-1,-1.6947053E-1,-1.6189577E-1,-5.616346E-2,-1.6435392E-1],"categories":[],"categories_nodes":[],"categories_segments":[],"categories_sizes":[],"default_left":[0,0,0,0,0,0,0,0,0,0,0,0,0,0,0,0,0,0,0,0,0,0,0,0,0,0,0,0,0,0,0,0,0,0,0,0,0,0,0,0,0,0,0,0,0,0,0,0,0,0,0],"id":11,"left_children":[1,3,5,-1,7,-1,9,11,13,15,17,19,21,-1,23,25,-1,27,29,31,33,35,-1,37,-1,39,41,43,45,47,49,-1,-1,-1,-1,-1,-1,-1,-1,-1,-1,-1,-1,-1,-1,-1,-1,-1,-1,-1,-1],"loss_changes":[2.8222656E0,1.09375E-1,3.2841797E0,0E0,2.984375E0,0E0,1.8269043E1,9.212158E0,1.5673828E-1,2.5006405E1,7.0581055E0,2.4481506E0,6.5442805E0,0E0,1.6847656E1,8.03409E0,0E0,5.0128296E1,1.6386719E0,4.9441528E-1,1.0640968E1,1.5379361E1,0E0,1.2942843E1,0E0,1.6534178E0,1.8049026E1,3.9974365E0,2.3920073E1,4.736328E-1,1.35824585E1,0E0,0E0,0E0,0E0,0E0,0E0,0E0,0E0,0E0,0E0,0E0,0E0,0E0,0E0,0E0,0E0,0E0,0E0,0E0,0E0],"parents":[2147483647,0,0,1,1,2,2,4,4,6,6,7,7,8,8,9,9,10,10,11,11,12,12,14,14,15,15,17,17,18,18,19,19,20,20,21,21,23,23,25,25,26,26,27,27,28,28,29,29,30,30],"right_children":[2,4,6,-1,8,-1,10,12,14,16,18,20,22,-1,24,26,-1,28,30,32,34,36,-1,38,-1,40,42,44,46,48,50,-1,-1,-1,-1,-1,-1,-1,-1,-1,-1,-1,-1,-1,-1,-1,-1,-1,-1,-1,-1],"split_conditions":[1.0066205E3,2.0301308E-1,1.8247567E-1,-1.699864E-1,2.0722748E-1,-1.702545E-1,1.8308453E-1,2.0700352E-1,2.3716527E-1,3.05E-1,2.0722748E-1,2.0602013E-1,3.01E-1,-1.7016198E-1,2.3742226E-1,8.64E0,-1.6862237E-1,2.0700352E-1,2.4301653E-1,2.0316912E-1,2.0638132E-1,1.16E-1,-1.66775E-1,2.02E-1,-1.6927053E-1,6.267E1,1.1433E2,9.94E-1,9.95E-1,9.94E-1,2.4335805E-1,-1.4593665E-1,-1.7007893E-1,-5.633597E-2,-1.694708E-1,-1.4782685E-1,1.4928114E-1,5.413713E-2,-1.6633482E-1,2.4927517E-2,-1.493115E-1,3.6463013E-1,-1.5258309E-1,-1.615605E-1,-1.3724995E-1,-3.3123415E-2,2.9787767E-1,-1.6947053E-1,-1.6189577E-1,-5.616346E-2,-1.6435392E-1],"split_indices":[3,0,0,0,0,0,0,0,0,1,0,0,1,0,0,5,0,0,0,0,0,1,0,1,0,4,5,1,1,1,0,0,0,0,0,0,0,0,0,0,0,0,0,0,0,0,0,0,0,0,0],"split_type":[0,0,0,0,0,0,0,0,0,0,0,0,0,0,0,0,0,0,0,0,0,0,0,0,0,0,0,0,0,0,0,0,0,0,0,0,0,0,0,0,0,0,0,0,0,0,0,0,0,0,0],"sum_hessian":[5.8395305E4,3.157807E4,2.6817234E4,1.4389239E4,1.718883E4,6.9187124E3,1.9898521E4,1.6853677E3,1.5503462E4,1.2085861E2,1.9777662E4,1.5906029E3,9.476475E1,1.11513955E4,4.3520664E3,5.4740524E1,6.611809E1,6.3625864E3,1.3415076E4,1.2137667E3,3.7683627E2,6.0779366E1,3.3985382E1,9.580255E1,4.256264E3,2.7246517E1,2.7494005E1,6.2176807E3,1.4490582E2,1.1354611E4,2.060465E3,1.3967554E2,1.0740912E3,1.0493135E2,2.719049E2,3.1342323E1,2.943704E1,5.4543743E1,4.1258804E1,2.2009975E1,5.2365427E0,1.9531803E1,7.962202E0,5.4794614E3,7.382193E2,1.2253509E2,2.2370737E1,9.942006E3,1.412605E3,1.117432E2,1.9487219E3],"tree_param":{"num_deleted":"0","num_feature":"9","num_nodes":"51","size_leaf_vector":"1"}},{"base_weights":[-5.2474403E-1,-5.4375786E-1,-5.158605E-1,-1.7030756E-1,-5.355829E-1,-4.7562945E-1,-5.262419E-1,-5.1690286E-1,-5.577677E-1,-4.8398176E-1,-2.6452488E-1,-5.323746E-1,-4.8571768E-1,-5.3299254E-1,-4.0395147E-1,-5.485455E-1,-1.7047521E-1,-4.9082145E-1,-2.6733577E-1,5.4349124E-1,-3.6722434E-1,-5.5801475E-1,-5.25137E-1,-1.7102702E-1,-5.058959E-1,-4.9148533E-1,-5.520929E-1,-4.4772893E-1,-2.2002684E-1,-5.588633E-1,-4.1477138E-1,-5.177017E-1,-4.5971355E-1,-1.7038023E-1,-1.5736729E-1,-1.5832266E-1,3.0572528E-1,-5.7261117E-2,-1.7074457E-1,-5.6202435E-1,-5.24887E-1,-4.0955293E-1,-5.3812146E-1,-2.872461E-1,3.9880213E-1,-5.159496E-1,-3.615649E-1,-1.4370666E-1,-1.705389E-1,-1.683703E-1,-1.4399515E-1,-1.365112E-1,-4.1686565E-2,5.8606524E-2,-1.4351265E-1,-1.7023073E-1,-1.629111E-1,-1.6921994E-1,-1.0633793E-1,-1.5896022E-1,-1.4172928E-1,-1.3132451E-1,-1.611023E-1,-1.1392452E-2,-1.6819343E-1,1.6266565E-1,-1.1036031E-1,-1.6030101E-1,-1.6959114E-1,3.4761056E-2,-1.7031328E-1,-8.401339E-2,-1.3454357E-1,-1.706543E-1,-1.5913281E-1,-1.3726485E-2,-1.393255E-1,-1.3481665E-1,-1.5942396E-1,-1.3560617E-1,3.5166327E-2],"categories":[],"categories_nodes":[],"categories_segments":[],"categories_sizes":[],"default_left":[0,0,0,0,0,0,0,0,0,0,0,0,0,0,0,0,0,0,0,0,0,0,0,0,0,0,0,0,0,0,0,0,0,0,0,0,0,0,0,0,0,0,0,0,0,0,0,0,0,0,0,0,0,0,0,0,0,0,0,0,0,0,0,0,0,0,0,0,0,0,0,0,0,0,0,0,0,0,0,0,0],"id":12,"left_children":[1,3,5,-1,7,9,11,13,15,17,19,21,23,25,27,29,-1,31,33,35,37,39,41,43,45,47,49,51,53,55,57,59,61,-1,63,-1,-1,65,-1,67,69,71,73,75,-1,77,79,-1,-1,-1,-1,-1,-1,-1,-1,-1,-1,-1,-1,-1,-1,-1,-1,-1,-1,-1,-1,-1,-1,-1,-1,-1,-1,-1,-1,-1,-1,-1,-1,-1,-1],"loss_changes":[9.706055E0,3.3769531E0,1.6588867E1,0E0,5.529541E0,1.44729E1,7.705078E0,1.3660767E1,3.076172E-1,1.167041E1,2.653541E1,4.870117E0,2.6728882E1,5.0247803E0,7.600174E0,4.5111084E0,0E0,6.216797E0,8.040661E0,1.8976477E1,1.7628357E1,5.164795E-1,3.2364258E1,4.5016285E1,5.571167E0,1.7561951E0,2.7409668E0,1.6774445E0,2.0031582E1,1.2420654E-1,2.050499E0,2.026123E0,5.8552856E0,0E0,8.715355E0,0E0,0E0,2.1132456E1,0E0,1.9128418E-1,1.85764E1,1.0949554E1,4.3027344E0,1.0178537E1,0E0,3.5769043E0,1.1388721E1,0E0,0E0,0E0,0E0,0E0,0E0,0E0,0E0,0E0,0E0,0E0,0E0,0E0,0E0,0E0,0E0,0E0,0E0,0E0,0E0,0E0,0E0,0E0,0E0,0E0,0E0,0E0,0E0,0E0,0E0,0E0,0E0,0E0,0E0],"parents":[2147483647,0,0,1,1,2,2,4,4,5,5,6,6,7,7,8,8,9,9,10,10,11,11,12,12,13,13,14,14,15,15,17,17,18,18,19,19,20,20,21,21,22,22,23,23,24,24,25,25,26,26,27,27,28,28,29,29,30,30,31,31,32,32,34,34,37,37,39,39,40,40,41,41,42,42,43,43,45,45,46,46],"right_children":[2,4,6,-1,8,10,12,14,16,18,20,22,24,26,28,30,-1,32,34,36,38,40,42,44,46,48,50,52,54,56,58,60,62,-1,64,-1,-1,66,-1,68,70,72,74,76,-1,78,80,-1,-1,-1,-1,-1,-1,-1,-1,-1,-1,-1,-1,-1,-1,-1,-1,-1,-1,-1,-1,-1,-1,-1,-1,-1,-1,-1,-1,-1,-1,-1,-1,-1,-1],"split_conditions":[1.8838686E-1,1.6031401E-1,2.035687E-1,-1.7030756E-1,1.7557587E-1,9.98E-1,2.4335805E-1,1.7380674E-1,1.8247567E-1,2.0316912E-1,1.8893315E-1,2.122954E-1,2.4378674E-1,1.6440602E-1,2.8163E2,1.8213806E-1,-1.7047521E-1,9.995834E2,1.88E-1,1E0,9.99E-1,9.89E-1,2.1477024E-1,4.9963726E3,2.4963662E-1,2.9732522E3,2.9678582E3,1.5037E2,9.783147E2,1.7980313E-1,6.079483E2,2.0064501E-1,2.9732522E3,-1.7038023E-1,1.1433E2,-1.5832266E-1,3.0572528E-1,1.9453825E-1,-1.7074457E-1,2.0440167E-1,9.9E-1,2.1280092E-1,2.2042611E-1,4.96E-1,3.9880213E-1,2.4494037E-1,2.8163E2,-1.4370666E-1,-1.705389E-1,-1.683703E-1,-1.4399515E-1,-1.365112E-1,-4.1686565E-2,5.8606524E-2,-1.4351265E-1,-1.7023073E-1,-1.629111E-1,-1.6921994E-1,-1.0633793E-1,-1.5896022E-1,-1.4172928E-1,-1.3132451E-1,-1.611023E-1,-1.1392452E-2,-1.6819343E-1,1.6266565E-1,-1.1036031E-1,-1.6030101E-1,-1.6959114E-1,3.4761056E-2,-1.7031328E-1,-8.401339E-2,-1.3454357E-1,-1.706543E-1,-1.5913281E-1,-1.3726485E-2,-1.393255E-1,-1.3481665E-1,-1.5942396E-1,-1.3560617E-1,3.5166327E-2],"split_indices":[0,0,0,0,0,1,0,0,0,0,0,0,0,0,4,0,0,3,1,1,1,1,0,3,0,3,3,8,3,0,3,0,3,0,5,0,0,0,0,0,1,0,0,1,0,0,4,0,0,0,0,0,0,0,0,0,0,0,0,0,0,0,0,0,0,0,0,0,0,0,0,0,0,0,0,0,0,0,0,0,0],"split_type":[0,0,0,0,0,0,0,0,0,0,0,0,0,0,0,0,0,0,0,0,0,0,0,0,0,0,0,0,0,0,0,0,0,0,0,0,0,0,0,0,0,0,0,0,0,0,0,0,0,0,0,0,0,0,0,0,0,0,0,0,0,0,0,0,0,0,0,0,0,0,0,0,0,0,0,0,0,0,0,0,0],"sum_hessian":[5.9129496E4,1.8809822E4,4.0319676E4,4.7715537E3,1.4038268E4,8.279813E3,3.2039863E4,7.634322E3,6.4039463E3,7.963448E3,3.1636478E2,2.781791E4,4.221954E3,6.679171E3,9.5515106E2,3.4352178E3,2.9687283E3,7.7185034E3,2.4494482E2,3.5191776E1,2.8117297E2,6.107014E3,2.1710895E4,2.5497348E2,3.9669805E3,2.1133528E3,4.565818E3,7.703575E2,1.8479358E2,3.1862866E3,2.4893108E2,4.132221E3,3.5862822E3,6.449192E1,1.8045291E2,1.0786479E1,2.4405298E1,1.1142063E2,1.6975235E2,5.433422E3,6.735921E2,2.1959302E3,1.9514965E4,2.3739343E2,1.7580046E1,3.706239E3,2.6074142E2,1.8250831E3,2.8826962E2,4.046099E3,5.197189E2,7.520826E2,1.8274843E1,7.095442E1,1.1383916E2,2.0441798E3,1.1421069E3,6.9223366E1,1.797077E2,3.2485308E3,8.836906E2,2.7978586E3,7.8842365E2,1.4007663E2,4.0376274E1,3.7772636E1,7.3647995E1,5.927674E2,4.840655E3,4.2091278E1,6.3150085E2,5.093798E2,1.6865503E3,3.8872625E3,1.5627703E4,1.00993904E2,1.3639954E2,7.043834E2,3.0018557E3,2.193552E2,4.1386223E1],"tree_param":{"num_deleted":"0","num_feature":"9","num_nodes":"81","size_leaf_vector":"1"}},{"base_weights":[-5.223217E-1,-5.1645786E-1,-5.4119796E-1,-5.1850337E-1,-1.6740434E-1,-1.7033519E-1,-5.2637863E-1,-5.2248174E-1,-4.6402E-1,5.505981E-3,-1.6851155E-1,-3.8450894E-1,-5.3014475E-1,-5.169852E-1,-1.7032687E-1,-4.031012E-1,-1.702184E-1,-1.0678958E-1,9.833885E-1,-3.4616902E-2,-4.622407E-1,-5.256629E-1,-1.7023718E-1,-5.182009E-1,-3.4938073E-1,-3.444319E-1,-4.679331E-1,3.5248178E-1,-3.0164808E-1,3.8949552E-1,4.9790338E-1,7.012908E-1,-9.461972E-2,-3.4989607E-1,-1.6873765E-1,-5.330543E-1,-2.944196E-1,-1.5834525E-1,-1.5305221E-1,-1.2120449E-1,-4.2875414E-3,-1.9749103E-2,-1.1628311E-1,-1.5363304E-1,-5.3902175E-2,-1.7291088E-2,2.35958E-1,-1.6710988E-1,-3.427182E-2,-1.5880096E-1,4.4874677E-1,3.090374E-1,2.5457045E-2,-9.866952E-2,5.1978514E-2,-1.4704603E-1,1.6635764E-1,-1.568498E-1,-1.6688378E-1,-5.5695213E-2,-1.7009321E-1],"categories":[],"categories_nodes":[],"categories_segments":[],"categories_sizes":[],"default_left":[0,0,0,0,0,0,0,0,0,0,0,0,0,0,0,0,0,0,0,0,0,0,0,0,0,0,0,0,0,0,0,0,0,0,0,0,0,0,0,0,0,0,0,0,0,0,0,0,0,0,0,0,0,0,0,0,0,0,0,0,0],"id":13,"left_children":[1,3,5,7,9,-1,11,13,15,17,-1,19,21,23,-1,25,-1,27,29,31,33,35,-1,37,39,41,43,45,47,-1,49,51,53,55,-1,57,59,-1,-1,-1,-1,-1,-1,-1,-1,-1,-1,-1,-1,-1,-1,-1,-1,-1,-1,-1,-1,-1,-1,-1,-1],"loss_changes":[6.270508E0,3.216504E1,5.2192383E0,9.4921875E0,1.8046444E1,0E0,4.60791E0,1.0120117E1,1.9073181E1,2.0416061E1,0E0,6.417221E0,1.1687012E0,7.423828E0,0E0,7.187439E0,0E0,1.5034814E1,2.2815247E0,2.0126615E0,1.9813347E0,1.3249756E1,0E0,2.5908203E0,4.971161E0,1.2220436E1,1.1560013E1,8.973007E0,5.5676928E0,0E0,1.0178549E1,6.102607E-1,2.6699889E0,1.2177697E1,0E0,1.5131836E0,7.163372E0,0E0,0E0,0E0,0E0,0E0,0E0,0E0,0E0,0E0,0E0,0E0,0E0,0E0,0E0,0E0,0E0,0E0,0E0,0E0,0E0,0E0,0E0,0E0,0E0],"parents":[2147483647,0,0,1,1,2,2,3,3,4,4,6,6,7,7,8,8,9,9,11,11,12,12,13,13,15,15,17,17,18,18,19,19,20,20,21,21,23,23,24,24,25,25,26,26,27,27,28,28,30,30,31,31,32,32,33,33,35,35,36,36],"right_children":[2,4,6,8,10,-1,12,14,16,18,-1,20,22,24,-1,26,-1,28,30,32,34,36,-1,38,40,42,44,46,48,-1,50,52,54,56,-1,58,60,-1,-1,-1,-1,-1,-1,-1,-1,-1,-1,-1,-1,-1,-1,-1,-1,-1,-1,-1,-1,-1,-1,-1,-1],"split_conditions":[2.2886306E-1,2.2852688E-1,2.3621583E-1,2.2354816E-1,9.955627E2,-1.7033519E-1,2.3647247E-1,2.1734801E-1,2.2688529E-1,9.807151E2,-1.6851155E-1,1.313023E2,2.4863543E-1,2.1693811E-1,-1.7032687E-1,4.41E-1,-1.702184E-1,3.458576E2,9.8324396E2,1.731754E0,9.707032E2,2.4832088E-1,-1.7023718E-1,1.843157E-1,1.1495E2,2.2396494E-1,2.265548E-1,1.51E-1,4.13E-1,3.8949552E-1,9.93E-1,2.8E1,6.9E-2,4.83E-1,-1.6873765E-1,2.4463412E-1,7.75E-1,-1.5834525E-1,-1.5305221E-1,-1.2120449E-1,-4.2875414E-3,-1.9749103E-2,-1.1628311E-1,-1.5363304E-1,-5.3902175E-2,-1.7291088E-2,2.35958E-1,-1.6710988E-1,-3.427182E-2,-1.5880096E-1,4.4874677E-1,3.090374E-1,2.5457045E-2,-9.866952E-2,5.1978514E-2,-1.4704603E-1,1.6635764E-1,-1.568498E-1,-1.6688378E-1,-5.5695213E-2,-1.7009321E-1],"split_indices":[0,0,0,0,3,0,0,0,0,3,0,3,0,0,0,1,0,3,3,3,3,0,0,0,5,0,0,1,1,0,1,2,1,1,0,0,1,0,0,0,0,0,0,0,0,0,0,0,0,0,0,0,0,0,0,0,0,0,0,0,0],"split_type":[0,0,0,0,0,0,0,0,0,0,0,0,0,0,0,0,0,0,0,0,0,0,0,0,0,0,0,0,0,0,0,0,0,0,0,0,0,0,0,0,0,0,0,0,0,0,0,0,0,0,0,0,0,0,0,0,0,0,0,0,0],"sum_hessian":[5.917541E4,4.517144E4,1.4003969E4,4.4907793E4,2.6364798E2,4.998779E3,9.005189E3,4.184377E4,3.064024E3,1.8396222E2,7.9685776E1,2.3553537E2,8.769654E3,3.7324805E4,4.518965E3,1.9309884E3,1.1330354E3,1.6581192E2,1.815029E1,4.307741E1,1.9245796E2,7.842708E3,9.269461E2,3.7053953E4,2.7085495E2,1.0169855E3,9.1400287E2,4.9152687E1,1.1665924E2,9.993393E0,8.156896E0,2.44183E0,4.0635582E1,9.285677E1,9.960118E1,7.5985254E3,2.4418256E2,1.682817E4,2.0225781E4,2.3270769E2,3.8147274E1,1.3680421E2,8.801813E2,7.918689E2,1.22134E2,2.5718803E1,2.3433884E1,4.8540302E1,6.8118935E1,4.25078E0,3.906116E0,1.1547377E0,1.2870921E0,2.1555874E1,1.9079706E1,8.078649E1,1.2070289E1,5.292656E3,2.3058696E3,1.7573401E2,6.844855E1],"tree_param":{"num_deleted":"0","num_feature":"9","num_nodes":"61","size_leaf_vector":"1"}},{"base_weights":[-5.2634895E-1,-4.9891758E-1,-5.316515E-1,-4.6315682E-1,-5.4390585E-1,-5.360104E-1,-5.1593804E-1,-4.9397615E-1,-3.811085E-1,-5.5293155E-1,-2.115683E-1,-5.286801E-1,-5.519037E-1,-5.425562E-1,-4.931038E-1,-5.0308514E-1,-1.6050087E-1,-2.2366652E-1,-4.5849103E-1,-5.5788493E-1,-3.5879874E-1,-4.9223772E-1,-2.6344843E-2,-5.107402E-1,-5.3916776E-1,-5.607861E-1,-5.3922063E-1,-5.3195935E-1,-1.7034191E-1,1.0198084E-1,-5.0114673E-1,-4.685111E-1,-5.5637515E-1,2.954506E-1,-1.6946933E-1,1.677131E-1,-3.8757133E-1,-1.7099841E-1,-3.7482056E-1,-5.599831E-1,-5.085916E-1,-3.3234064E-2,-1.6843803E-1,-2.1573828E-1,-1.6574933E-1,1.7180839E-1,-1.6182822E-1,-5.1610845E-1,-3.1902194E-1,-5.5866116E-1,-5.272429E-1,-5.0682896E-1,-5.6266105E-1,1.2686396E-1,-5.488322E-1,-5.499027E-1,-3.2564363E-1,5.53109E-1,-1.6929449E-1,-5.124519E-1,-3.2874215E-1,-1.4861472E-1,-8.719342E-2,-1.7054138E-1,-1.610222E-1,-1.6131851E-1,2.0912735E-1,-1.7660871E-2,1.4200674E-1,-9.0539195E-2,-1.711935E-1,-2.2034436E-2,-1.4390664E-1,-1.6418158E-1,-1.703154E-1,-1.5953907E-1,-1.0316957E-1,-1.6495965E-1,1.2663998E-1,-1.4068049E-1,3.041962E-2,1.0374894E-1,-1.6262309E-1,-1.6629611E-1,-1.5085879E-1,-3.3616066E-2,-1.4960386E-1,-1.6764286E-1,-7.483168E-2,-1.11029446E-1,-1.5925263E-1,-1.6974968E-1,-6.433342E-2,-1.6892308E-1,-1.0335064E-1,2.0797524E-1,-1.6562176E-1,-1.6549145E-1,-1.3962883E-1,-1.5706345E-1,-1.6980341E-1,2.4209758E-4,-1.4171295E-1,-1.6867643E-2,4.444193E-1,-1.4313795E-1,-1.6259035E-1,-1.1306215E-2,-1.2657124E-1],"categories":[],"categories_nodes":[],"categories_segments":[],"categories_sizes":[],"default_left":[0,0,0,0,0,0,0,0,0,0,0,0,0,0,0,0,0,0,0,0,0,0,0,0,0,0,0,0,0,0,0,0,0,0,0,0,0,0,0,0,0,0,0,0,0,0,0,0,0,0,0,0,0,0,0,0,0,0,0,0,0,0,0,0,0,0,0,0,0,0,0,0,0,0,0,0,0,0,0,0,0,0,0,0,0,0,0,0,0,0,0,0,0,0,0,0,0,0,0,0,0,0,0,0,0,0,0,0,0],"id":14,"left_children":[1,3,5,7,9,11,13,15,17,19,21,23,25,27,29,31,33,35,37,39,41,43,45,47,49,51,53,55,-1,57,59,61,63,65,-1,67,69,-1,71,73,75,77,-1,79,-1,81,-1,83,85,87,89,91,93,95,97,99,101,103,-1,105,107,-1,-1,-1,-1,-1,-1,-1,-1,-1,-1,-1,-1,-1,-1,-1,-1,-1,-1,-1,-1,-1,-1,-1,-1,-1,-1,-1,-1,-1,-1,-1,-1,-1,-1,-1,-1,-1,-1,-1,-1,-1,-1,-1,-1,-1,-1,-1,-1],"loss_changes":[8.329102E0,1.5175049E1,3.1152344E0,1.3337891E1,1.2603882E1,4.220703E0,6.282959E0,1.1720764E1,1.7745758E1,3.7694092E0,5.900433E0,4.715332E0,1.0722656E0,1.0267334E0,2.7868652E1,6.706299E0,1.9485004E1,3.1158968E1,8.941193E0,1.3122559E-1,6.9429827E0,6.333561E-1,7.1670623E0,9.927734E0,3.5932617E0,4.3847656E-1,3.241101E1,1.2830078E1,0E0,2.3858679E1,1.1008667E1,1.0847595E1,4.699707E-2,1.7074196E1,0E0,9.984594E0,5.1972847E0,0E0,1.7774635E1,6.774902E-2,4.8654556E-1,1.000569E1,0E0,8.2826257E-1,0E0,6.517672E0,0E0,4.548584E0,9.973209E0,1.5112305E-1,5.682129E0,4.195488E0,4.3237305E-1,2.8327757E1,9.086914E-1,1.0758057E0,1.358614E1,2.6789883E1,0E0,5.350952E0,9.628689E0,0E0,0E0,0E0,0E0,0E0,0E0,0E0,0E0,0E0,0E0,0E0,0E0,0E0,0E0,0E0,0E0,0E0,0E0,0E0,0E0,0E0,0E0,0E0,0E0,0E0,0E0,0E0,0E0,0E0,0E0,0E0,0E0,0E0,0E0,0E0,0E0,0E0,0E0,0E0,0E0,0E0,0E0,0E0,0E0,0E0,0E0,0E0,0E0],"parents":[2147483647,0,0,1,1,2,2,3,3,4,4,5,5,6,6,7,7,8,8,9,9,10,10,11,11,12,12,13,13,14,14,15,15,16,16,17,17,18,18,19,19,20,20,21,21,22,22,23,23,24,24,25,25,26,26,27,27,29,29,30,30,31,31,32,32,33,33,35,35,36,36,38,38,39,39,40,40,41,41,43,43,45,45,47,47,48,48,49,49,50,50,51,51,52,52,53,53,54,54,55,55,56,56,57,57,59,59,60,60],"right_children":[2,4,6,8,10,12,14,16,18,20,22,24,26,28,30,32,34,36,38,40,42,44,46,48,50,52,54,56,-1,58,60,62,64,66,-1,68,70,-1,72,74,76,78,-1,80,-1,82,-1,84,86,88,90,92,94,96,98,100,102,104,-1,106,108,-1,-1,-1,-1,-1,-1,-1,-1,-1,-1,-1,-1,-1,-1,-1,-1,-1,-1,-1,-1,-1,-1,-1,-1,-1,-1,-1,-1,-1,-1,-1,-1,-1,-1,-1,-1,-1,-1,-1,-1,-1,-1,-1,-1,-1,-1,-1,-1],"split_conditions":[1.6965845E-1,9.995834E2,1.9977766E3,1.6477405E-1,1.6920549E-1,6.5E-1,2.122954E-1,9.96E-1,1.663176E-1,9.99E-1,5.63E-1,2.035687E-1,2.2004436E-1,2.0316912E-1,2.126152E-1,1.5885955E-1,1.5409622E-1,9.1E-2,1.6767536E-1,1.6818386E-1,1.9977766E3,1.242217E3,9.85E-1,2.0301308E-1,2.2042611E-1,1.7190033E-1,2.2042611E-1,2.0102869E-1,-1.7034191E-1,6.42E-1,9.99E-1,1.5802564E-1,2.96E-1,1.528194E-1,-1.6946933E-1,1.658969E-1,1.658969E-1,-1.7099841E-1,1.6818386E-1,1.5733206E-1,9.9E-1,1.5613542E-1,-1.6843803E-1,3.4E-1,-1.6574933E-1,1.1495E2,-1.6182822E-1,1.7880711E-1,2.0316912E-1,1.9929971E3,2.2107506E-1,1.7149282E-1,3.803E3,9.854127E2,9.64E2,5.7E-1,2.0130944E-1,3.2525752E3,-1.6929449E-1,2.9794055E3,2.207309E-1,-1.4861472E-1,-8.719342E-2,-1.7054138E-1,-1.610222E-1,-1.6131851E-1,2.0912735E-1,-1.7660871E-2,1.4200674E-1,-9.0539195E-2,-1.711935E-1,-2.2034436E-2,-1.4390664E-1,-1.6418158E-1,-1.703154E-1,-1.5953907E-1,-1.0316957E-1,-1.6495965E-1,1.2663998E-1,-1.4068049E-1,3.041962E-2,1.0374894E-1,-1.6262309E-1,-1.6629611E-1,-1.5085879E-1,-3.3616066E-2,-1.4960386E-1,-1.6764286E-1,-7.483168E-2,-1.11029446E-1,-1.5925263E-1,-1.6974968E-1,-6.433342E-2,-1.6892308E-1,-1.0335064E-1,2.0797524E-1,-1.6562176E-1,-1.6549145E-1,-1.3962883E-1,-1.5706345E-1,-1.6980341E-1,2.4209758E-4,-1.4171295E-1,-1.6867643E-2,4.444193E-1,-1.4313795E-1,-1.6259035E-1,-1.1306215E-2,-1.2657124E-1],"split_indices":[0,3,3,0,0,1,0,1,0,1,1,0,0,0,0,0,0,1,0,0,3,3,1,0,0,0,0,0,0,1,1,0,1,0,0,0,0,0,0,0,1,0,0,1,0,5,0,0,0,3,0,0,2,3,2,1,0,3,0,3,0,0,0,0,0,0,0,0,0,0,0,0,0,0,0,0,0,0,0,0,0,0,0,0,0,0,0,0,0,0,0,0,0,0,0,0,0,0,0,0,0,0,0,0,0,0,0,0,0],"split_type":[0,0,0,0,0,0,0,0,0,0,0,0,0,0,0,0,0,0,0,0,0,0,0,0,0,0,0,0,0,0,0,0,0,0,0,0,0,0,0,0,0,0,0,0,0,0,0,0,0,0,0,0,0,0,0,0,0,0,0,0,0,0,0,0,0,0,0,0,0,0,0,0,0,0,0,0,0,0,0,0,0,0,0,0,0,0,0,0,0,0,0,0,0,0,0,0,0,0,0,0,0,0,0,0,0,0,0,0,0],"sum_hessian":[5.909335E4,9.587965E3,4.950539E4,5.348103E3,4.2398613E3,3.8729016E4,1.0776373E4,3.8841157E3,1.4639872E3,4.127113E3,1.1274864E2,2.6528102E4,1.2200914E4,4.9653936E3,5.81098E3,3.7803455E3,1.0377029E2,4.837147E2,9.802725E2,4.0226006E3,1.045124E2,4.4166115E1,6.858253E1,9.805224E3,1.6722879E4,7.150189E3,5.050725E3,3.5131E3,1.4522933E3,7.733581E1,5.733644E3,2.2987383E3,1.481607E3,4.8902664E1,5.4867622E1,1.4277252E2,3.4094217E2,4.1774753E2,5.6252496E2,3.8484375E3,1.7416295E2,4.054423E1,6.3968166E1,8.7226925E0,3.5443424E1,4.9954987E1,1.8627544E1,9.536504E3,2.687192E2,6.329783E3,1.0393095E4,2.4922676E2,6.900962E3,7.16712E1,4.979054E3,3.2304788E3,2.8262137E2,4.6214966E1,3.1120842E1,5.378955E3,3.5468906E2,1.9954839E3,3.032545E2,8.9950415E2,5.821029E2,1.5795997E1,3.3106667E1,8.245409E1,6.0318447E1,2.3397038E2,1.06971794E2,1.456509E2,4.1687408E2,1.4830443E3,2.3653933E3,1.5070021E2,2.3462734E1,1.8897163E1,2.1647068E1,4.584142E0,4.1385508E0,4.0578796E1,9.376188E0,2.4442876E3,7.092217E3,1.2562309E2,1.4309612E2,6.3259414E3,3.841994E0,2.3503206E2,1.01580625E4,2.065996E2,4.262716E1,6.886255E3,1.4707056E1,3.906285E1,3.2608353E1,4.8115625E3,1.6749174E2,1.2381138E3,1.9923649E3,8.794847E1,1.9467288E2,2.8467894E1,1.7747072E1,2.4563262E3,2.922629E3,8.634286E1,2.683462E2],"tree_param":{"num_deleted":"0","num_feature":"9","num_nodes":"109","size_leaf_vector":"1"}},{"base_weights":[7.406541E-1,7.383759E-1,7.617319E-1,7.401067E-1,6.9029534E-1,7.0604724E-1,7.638408E-1,7.4490416E-1,7.315411E-1,6.607487E-1,2.3452705E-1,7.5380355E-1,3.6982813E-1,7.561222E-1,7.7981865E-1,7.262006E-1,7.48338E-1,7.575159E-1,7.224331E-1,6.695311E-1,-6.988162E-1,2.3619066E-1,6.4833516E-1,5.330882E-1,-2.2158274E-1,7.6508635E-1,7.1471465E-1,2.3513259E-1,6.8127805E-1,7.4243885E-1,6.701096E-1,7.432724E-1,7.592924E-1,2.3659351E-1,7.530952E-1,4.587162E-1,7.238736E-1,2.3468128E-1,6.312115E-1,5.3436196E-1,-3.6230874E-1,4.6202838E-1,2.3797892E-1,5.315734E-2,7.6404536E-1,-4.7028708E-1,1.9742456E-1,7.7007633E-1,7.105808E-1,2.438392E-1,6.777329E-1,1.1622509E-1,2.4100418E-1,2.2412531E-1,1.6847336E-1,1.6458328E-1,2.0944344E-1,2.2537461E-1,2.1963234E-1,2.2828893E-1,1.5400232E-1,2.2050954E-1,2.2927882E-1,1.6696161E-1,-9.387438E-2,2.0969991E-1,2.1988288E-1,2.0854902E-2,1.9353476E-1,5.502234E-2,1.9052382E-1,1.715007E-1,-2.9098004E-1,8.239404E-2,-2.7044797E-1,2.3772907E-1,1.0450406E-1,-4.1895546E-2,-2.6142836E-1,2.2911695E-1,2.3793371E-1,1.9546132E-1,2.3088068E-1,-1.9630279E-1,2.1435246E-1,2.532888E-1,-1.7316997E-1],"categories":[],"categories_nodes":[],"categories_segments":[],"categories_sizes":[],"default_left":[0,0,0,0,0,0,0,0,0,0,0,0,0,0,0,0,0,0,0,0,0,0,0,0,0,0,0,0,0,0,0,0,0,0,0,0,0,0,0,0,0,0,0,0,0,0,0,0,0,0,0,0,0,0,0,0,0,0,0,0,0,0,0,0,0,0,0,0,0,0,0,0,0,0,0,0,0,0,0,0,0,0,0,0,0,0,0],"id":15,"left_children":[1,3,5,7,9,11,13,15,17,19,-1,21,23,25,27,29,31,33,35,37,39,-1,41,43,45,47,49,-1,51,53,55,57,59,-1,61,63,65,-1,67,69,-1,71,-1,73,75,77,-1,79,81,-1,83,85,-1,-1,-1,-1,-1,-1,-1,-1,-1,-1,-1,-1,-1,-1,-1,-1,-1,-1,-1,-1,-1,-1,-1,-1,-1,-1,-1,-1,-1,-1,-1,-1,-1,-1,-1],"loss_changes":[5.6875E0,9.253906E0,9.4677734E-1,4.1132812E0,1.0547119E1,7.347168E0,9.1259766E-1,4.1132812E0,9.089844E0,3.7493164E1,0E0,9.554596E-1,6.0111294E0,2.5136719E0,1.0002441E0,9.785645E0,2.8398438E0,8.5839844E-1,1.1133789E1,1.2818848E1,1.3441831E1,0E0,2.4870033E0,5.293561E0,3.3526478E0,1.2922363E0,4.826721E0,0E0,1.0912216E1,6.929199E0,8.286011E0,3.1875E0,7.5527344E0,0E0,1.3066406E0,1.2756405E1,6.2578125E0,0E0,1.7957092E1,1.1857712E-1,0E0,8.190154E0,0E0,3.780712E0,1.0643005E-1,1.3939123E0,0E0,2.993164E-1,1.5205994E0,0E0,5.3501984E1,1.5389115E1,0E0,0E0,0E0,0E0,0E0,0E0,0E0,0E0,0E0,0E0,0E0,0E0,0E0,0E0,0E0,0E0,0E0,0E0,0E0,0E0,0E0,0E0,0E0,0E0,0E0,0E0,0E0,0E0,0E0,0E0,0E0,0E0,0E0,0E0,0E0],"parents":[2147483647,0,0,1,1,2,2,3,3,4,4,5,5,6,6,7,7,8,8,9,9,11,11,12,12,13,13,14,14,15,15,16,16,17,17,18,18,19,19,20,20,22,22,23,23,24,24,25,25,26,26,28,28,29,29,30,30,31,31,32,32,34,34,35,35,36,36,38,38,39,39,41,41,43,43,44,44,45,45,47,47,48,48,50,50,51,51],"right_children":[2,4,6,8,10,12,14,16,18,20,-1,22,24,26,28,30,32,34,36,38,40,-1,42,44,46,48,50,-1,52,54,56,58,60,-1,62,64,66,-1,68,70,-1,72,-1,74,76,78,-1,80,82,-1,84,86,-1,-1,-1,-1,-1,-1,-1,-1,-1,-1,-1,-1,-1,-1,-1,-1,-1,-1,-1,-1,-1,-1,-1,-1,-1,-1,-1,-1,-1,-1,-1,-1,-1,-1,-1],"split_conditions":[3.0324705E3,2.9601702E3,1.5561742E-1,1.0637141E3,2.2712904E-1,1.5520924E-1,4.980127E3,1.6865139E-1,1.8213806E-1,2.265548E-1,2.3452705E-1,1.5445535E-1,5.2936333E3,9.89E-1,1E0,1.6477405E-1,5.09E-1,1.5409622E-1,1.8247567E-1,1.7190033E-1,6.05E-1,2.3619066E-1,4.962526E3,5.22E-1,1.1495E2,2.4335805E-1,1.9174789E-1,2.3513259E-1,1.8893315E-1,9.96E-1,1.8073355E2,1.66E-1,2.4963662E-1,2.3659351E-1,1.6440602E-1,9.91E-1,2.035687E-1,2.3468128E-1,1.7236055E-1,2.9794055E3,-3.6230874E-1,9.78E-1,2.3797892E-1,2.8163E2,1.0702E2,7.1E-1,1.9742456E-1,2.2688529E-1,2.4635178E-1,2.438392E-1,1.9222525E-1,1.6818386E-1,2.4100418E-1,2.2412531E-1,1.6847336E-1,1.6458328E-1,2.0944344E-1,2.2537461E-1,2.1963234E-1,2.2828893E-1,1.5400232E-1,2.2050954E-1,2.2927882E-1,1.6696161E-1,-9.387438E-2,2.0969991E-1,2.1988288E-1,2.0854902E-2,1.9353476E-1,5.502234E-2,1.9052382E-1,1.715007E-1,-2.9098004E-1,8.239404E-2,-2.7044797E-1,2.3772907E-1,1.0450406E-1,-4.1895546E-2,-2.6142836E-1,2.2911695E-1,2.3793371E-1,1.9546132E-1,2.3088068E-1,-1.9630279E-1,2.1435246E-1,2.532888E-1,-1.7316997E-1],"split_indices":[3,3,0,3,0,0,3,0,0,0,0,0,3,1,1,0,1,0,0,0,1,0,3,1,5,0,0,0,0,1,3,1,0,0,0,1,0,0,0,3,0,1,0,4,7,1,0,0,0,0,0,0,0,0,0,0,0,0,0,0,0,0,0,0,0,0,0,0,0,0,0,0,0,0,0,0,0,0,0,0,0,0,0,0,0,0,0],"split_type":[0,0,0,0,0,0,0,0,0,0,0,0,0,0,0,0,0,0,0,0,0,0,0,0,0,0,0,0,0,0,0,0,0,0,0,0,0,0,0,0,0,0,0,0,0,0,0,0,0,0,0,0,0,0,0,0,0,0,0,0,0,0,0,0,0,0,0,0,0,0,0,0,0,0,0,0,0,0,0,0,0,0,0,0,0,0,0],"sum_hessian":[1.30048234E5,1.1739567E5,1.2652559E4,1.13302586E5,4.093086E3,4.7394318E2,1.2178615E4,7.25709E4,4.073169E4,3.0998918E3,9.931942E2,4.1390976E2,6.003341E1,8.244271E3,3.9343435E3,1.1289664E4,6.1281234E4,1.0553224E4,3.0178469E4,3.0805002E3,1.9391531E1,3.092285E2,1.0468128E2,4.7123497E1,1.2909912E1,6.762746E3,1.4815255E3,3.7757856E3,1.5855785E2,8.74559E3,2.5440745E3,4.1951125E4,1.9330107E4,1.2902484E3,9.262975E3,1.6569023E2,3.0012777E4,7.7651276E2,2.3039875E3,5.649912E0,1.374162E1,4.7634483E1,5.7046795E1,1.57094E1,3.1414097E1,1.0427237E1,2.4826753E0,6.1835195E3,5.792267E2,3.999097E2,1.0816158E3,2.851505E1,1.300428E2,8.523531E3,2.2205914E2,4.8082806E2,2.0632466E3,2.4430975E4,1.752015E4,1.9197613E4,1.324941E2,3.5643762E3,5.6985986E3,1.4729575E2,1.8394476E1,8.0399517E3,2.1972826E4,5.5800823E1,2.2481868E3,1.8889163E0,3.7609954E0,4.480471E1,2.8297713E0,1.3329187E1,2.380212E0,2.8557842E1,2.8562546E0,6.454956E0,3.9722805E0,4.873571E3,1.3099489E3,2.9557852E2,2.8364813E2,2.86073E1,1.0530085E3,1.3804261E1,1.4710789E1],"tree_param":{"num_deleted":"0","num_feature":"9","num_nodes":"87","size_leaf_vector":"1"}},{"base_weights":[-5.361597E-1,-5.4441506E-1,-5.264708E-1,-1.647939E-1,-5.402755E-1,-1.651745E-1,-5.18149E-1,-4.8916084E-1,-5.458588E-1,-1.10203035E-1,-5.208901E-1,-5.109494E-1,-1.547065E-1,-1.6502634E-1,-5.349075E-1,3.4211484E-1,-1.635565E-1,-4.8726308E-1,-5.370425E-1,-5.388186E-1,-4.2211598E-1,3.7582535E-2,-1.6063811E-1,-7.485184E-2,-1.6391596E-1,4.6938908E-1,-1.4537287E-1,-5.030179E-1,1.0554117E-1,-5.433722E-1,-5.021838E-1,-1.3541692E-1,-1.64958E-1,-3.767721E-2,-1.6428703E-1,-1.381428E-1,1.3798067E-1,6.658497E-2,-1.6046087E-1,-5.739137E-4,3.105039E-1,-1.5441161E-1,-1.252714E-1,-1.2731275E-1,1.0255255E-1,-1.5542439E-1,-1.6431995E-1,-3.637765E-2,-1.5781549E-1],"categories":[],"categories_nodes":[],"categories_segments":[],"categories_sizes":[],"default_left":[0,0,0,0,0,0,0,0,0,0,0,0,0,0,0,0,0,0,0,0,0,0,0,0,0,0,0,0,0,0,0,0,0,0,0,0,0,0,0,0,0,0,0,0,0,0,0,0,0],"id":16,"left_children":[1,3,5,-1,7,-1,9,11,13,15,17,19,21,-1,23,25,-1,27,29,31,33,35,-1,37,-1,39,-1,41,43,45,47,-1,-1,-1,-1,-1,-1,-1,-1,-1,-1,-1,-1,-1,-1,-1,-1,-1,-1],"loss_changes":[3.453125E0,2.1435547E-1,4.0351562E0,0E0,3.64917E0,0E0,1.7861328E1,9.837891E0,2.7807617E-1,2.1478996E1,8.383301E0,2.9345093E0,6.2190137E0,0E0,1.8337097E1,5.8741593E0,0E0,4.839026E1,2.097412E0,6.867981E-1,1.14539795E1,1.2242258E1,0E0,1.1843812E1,0E0,1.2535319E1,0E0,4.8201904E0,1.7026596E1,7.180176E-1,1.5065735E1,0E0,0E0,0E0,0E0,0E0,0E0,0E0,0E0,0E0,0E0,0E0,0E0,0E0,0E0,0E0,0E0,0E0,0E0],"parents":[2147483647,0,0,1,1,2,2,4,4,6,6,7,7,8,8,9,9,10,10,11,11,12,12,14,14,15,15,17,17,18,18,19,19,20,20,21,21,23,23,25,25,27,27,28,28,29,29,30,30],"right_children":[2,4,6,-1,8,-1,10,12,14,16,18,20,22,-1,24,26,-1,28,30,32,34,36,-1,38,-1,40,-1,42,44,46,48,-1,-1,-1,-1,-1,-1,-1,-1,-1,-1,-1,-1,-1,-1,-1,-1,-1,-1],"split_conditions":[1.0066205E3,2.0301308E-1,1.8247567E-1,-1.647939E-1,2.0722748E-1,-1.651745E-1,1.8308453E-1,2.0700352E-1,2.3716527E-1,3.05E-1,2.0722748E-1,2.0602013E-1,3.01E-1,-1.6502634E-1,2.3742226E-1,1.1433E2,-1.635565E-1,2.0700352E-1,2.4301653E-1,2.0316912E-1,2.0638132E-1,1.16E-1,-1.6063811E-1,2.02E-1,-1.6391596E-1,8.64E0,-1.4537287E-1,9.94E-1,4.18E-1,2.126152E-1,2.4335805E-1,-1.3541692E-1,-1.64958E-1,-3.767721E-2,-1.6428703E-1,-1.381428E-1,1.3798067E-1,6.658497E-2,-1.6046087E-1,-5.739137E-4,3.105039E-1,-1.5441161E-1,-1.252714E-1,-1.2731275E-1,1.0255255E-1,-1.5542439E-1,-1.6431995E-1,-3.637765E-2,-1.5781549E-1],"split_indices":[3,0,0,0,0,0,0,0,0,1,0,0,1,0,0,5,0,0,0,0,0,1,0,1,0,5,0,1,1,0,0,0,0,0,0,0,0,0,0,0,0,0,0,0,0,0,0,0,0],"split_type":[0,0,0,0,0,0,0,0,0,0,0,0,0,0,0,0,0,0,0,0,0,0,0,0,0,0,0,0,0,0,0,0,0,0,0,0,0,0,0,0,0,0,0,0,0,0,0,0,0],"sum_hessian":[4.673674E4,2.5205518E4,2.153122E4,1.148482E4,1.3720697E4,5.507891E3,1.602333E4,1.3598583E3,1.2360839E4,1.0722011E2,1.591611E4,1.2761912E3,8.3667175E1,8.881789E3,3.4790505E3,5.2667496E1,5.455261E1,5.1745586E3,1.0741552E4,9.6757385E2,3.0861728E2,5.6190857E1,2.747632E1,8.4876724E1,3.3941738E3,4.6015354E1,6.652143E0,5.0407437E3,1.3381522E2,9.0784795E3,1.6630721E3,1.13189255E2,8.543846E2,9.2374016E1,2.1624327E2,2.574311E1,3.0447748E1,5.19052E1,3.2971523E1,2.5644157E1,2.0371197E1,4.4298066E3,6.109366E2,4.1023006E1,9.279221E1,1.3528019E3,7.7256772E3,9.8418236E1,1.5646539E3],"tree_param":{"num_deleted":"0","num_feature":"9","num_nodes":"49","size_leaf_vector":"1"}},{"base_weights":[-4.9781823E-1,-5.210407E-1,-4.8704806E-1,-1.6521618E-1,-5.110191E-1,-4.393133E-1,-4.99576E-1,-4.882041E-1,-5.3840333E-1,-4.8523074E-1,-3.9131343E-1,-5.387686E-1,-4.9042386E-1,-5.0779986E-1,-3.548172E-1,-5.269794E-1,-1.6542251E-1,-5.0380206E-1,-4.2674327E-1,-1.4326963E-1,-4.0772647E-1,-5.4372805E-1,-4.982632E-1,-3.1281033E-1,-4.996074E-1,-4.572118E-1,-5.3145033E-1,-4.0504822E-1,-1.5585974E-1,-5.397292E-1,-3.716761E-1,-4.756536E-1,-5.285126E-1,-6.929328E-2,-4.9602035E-1,-2.7833787E-1,2.5598937E-1,-4.370983E-1,-2.3758504E-1,-5.09955E-1,-1.6432688E-1,1.6159812E-1,-1.651331E-1,-1.6530146E-1,-4.2483318E-1,-5.095202E-1,-4.5204067E-1,-1.4096357E-1,-1.03679426E-1,-1.6281177E-1,-1.3337924E-1,-9.2677906E-2,-1.313198E-1,7.006455E-2,-1.3246912E-1,-1.651198E-1,-1.5605012E-1,-8.751476E-2,-1.5612015E-1,-1.472168E-1,-9.9314615E-2,-1.6537917E-1,-1.4877655E-1,1.49873E-1,-1.6549414E-1,-1.6567641E-1,-1.3342494E-1,-4.7136333E-2,-1.6456732E-1,6.0845703E-2,-1.3336174E-1,1.0394758E-2,-1.13412924E-1,-8.548173E-2,-1.6489103E-1,-1.6235086E-1,4.1169196E-1,5.883128E-2,-1.1739759E-1,-1.0690138E-1,-1.5435705E-1,-1.2723127E-1,-1.541528E-1,-3.6993053E-2,-1.4246179E-1],"categories":[],"categories_nodes":[],"categories_segments":[],"categories_sizes":[],"default_left":[0,0,0,0,0,0,0,0,0,0,0,0,0,0,0,0,0,0,0,0,0,0,0,0,0,0,0,0,0,0,0,0,0,0,0,0,0,0,0,0,0,0,0,0,0,0,0,0,0,0,0,0,0,0,0,0,0,0,0,0,0,0,0,0,0,0,0,0,0,0,0,0,0,0,0,0,0,0,0,0,0,0,0,0,0],"id":17,"left_children":[1,3,5,-1,7,9,11,13,15,17,19,21,23,25,27,29,-1,31,33,35,37,39,41,43,45,47,49,51,53,55,57,59,61,63,65,67,-1,69,71,73,-1,75,-1,77,79,81,83,-1,-1,-1,-1,-1,-1,-1,-1,-1,-1,-1,-1,-1,-1,-1,-1,-1,-1,-1,-1,-1,-1,-1,-1,-1,-1,-1,-1,-1,-1,-1,-1,-1,-1,-1,-1,-1,-1],"loss_changes":[1.1688477E1,4.2148438E0,1.9297852E1,0E0,6.80542E0,1.4782349E1,9.005859E0,1.5979004E1,4.7180176E-1,3.5515137E0,1.3483734E1,7.0983887E-1,3.403711E1,6.203491E0,7.884094E0,5.2539673E0,0E0,1.5754395E0,2.0822311E1,2.8233498E1,1.5484863E1,3.109131E-1,1.8839005E1,1.7004082E1,9.166504E0,2.274475E0,3.341919E0,1.8575134E0,1.8117971E1,2.4456787E-1,2.371706E0,2.5347595E0,7.569885E-1,3.811418E1,1.7880402E0,5.9380198E0,0E0,1.2750916E1,1.7656578E1,4.1012115E0,0E0,3.5354774E1,0E0,3.664252E1,3.4206314E0,5.8691406E0,2.580597E1,0E0,0E0,0E0,0E0,0E0,0E0,0E0,0E0,0E0,0E0,0E0,0E0,0E0,0E0,0E0,0E0,0E0,0E0,0E0,0E0,0E0,0E0,0E0,0E0,0E0,0E0,0E0,0E0,0E0,0E0,0E0,0E0,0E0,0E0,0E0,0E0,0E0,0E0],"parents":[2147483647,0,0,1,1,2,2,4,4,5,5,6,6,7,7,8,8,9,9,10,10,11,11,12,12,13,13,14,14,15,15,17,17,18,18,19,19,20,20,21,21,22,22,23,23,24,24,25,25,26,26,27,27,28,28,29,29,30,30,31,31,32,32,33,33,34,34,35,35,37,37,38,38,39,39,41,41,43,43,44,44,45,45,46,46],"right_children":[2,4,6,-1,8,10,12,14,16,18,20,22,24,26,28,30,-1,32,34,36,38,40,42,44,46,48,50,52,54,56,58,60,62,64,66,68,-1,70,72,74,-1,76,-1,78,80,82,84,-1,-1,-1,-1,-1,-1,-1,-1,-1,-1,-1,-1,-1,-1,-1,-1,-1,-1,-1,-1,-1,-1,-1,-1,-1,-1,-1,-1,-1,-1,-1,-1,-1,-1,-1,-1,-1,-1],"split_conditions":[1.8838686E-1,1.6031401E-1,2.035687E-1,-1.6521618E-1,1.7557587E-1,9.97643E2,2.122954E-1,1.7380674E-1,1.8247567E-1,2.0064501E-1,1.8946198E-1,9.89E-1,2.1359108E-1,1.6440602E-1,2.8163E2,1.8213806E-1,-1.6542251E-1,1.9453825E-1,2.0102869E-1,1E0,2.0195119E-1,2.0440167E-1,9.9E-1,8.8551794E2,2.4335805E-1,9.85E-1,2.9678582E3,1.7410499E-1,9.783147E2,1.7980313E-1,5.28E-1,1.9407333E-1,1.9797209E-1,3.13E-1,2.0195119E-1,9.49E-1,2.5598937E-1,9.986661E2,2.0255785E-1,1.01E-1,-1.6432688E-1,1.9789752E3,-1.651331E-1,2.1280092E-1,1.9446343E3,2.1477024E-1,2.4378674E-1,-1.4096357E-1,-1.03679426E-1,-1.6281177E-1,-1.3337924E-1,-9.2677906E-2,-1.313198E-1,7.006455E-2,-1.3246912E-1,-1.651198E-1,-1.5605012E-1,-8.751476E-2,-1.5612015E-1,-1.472168E-1,-9.9314615E-2,-1.6537917E-1,-1.4877655E-1,1.49873E-1,-1.6549414E-1,-1.6567641E-1,-1.3342494E-1,-4.7136333E-2,-1.6456732E-1,6.0845703E-2,-1.3336174E-1,1.0394758E-2,-1.13412924E-1,-8.548173E-2,-1.6489103E-1,-1.6235086E-1,4.1169196E-1,5.883128E-2,-1.1739759E-1,-1.0690138E-1,-1.5435705E-1,-1.2723127E-1,-1.541528E-1,-3.6993053E-2,-1.4246179E-1],"split_indices":[0,0,0,0,0,3,0,0,0,0,0,1,0,0,4,0,0,0,0,1,0,0,1,3,0,1,3,0,3,0,1,0,0,1,0,1,0,3,0,1,0,3,0,0,3,0,0,0,0,0,0,0,0,0,0,0,0,0,0,0,0,0,0,0,0,0,0,0,0,0,0,0,0,0,0,0,0,0,0,0,0,0,0,0,0],"split_type":[0,0,0,0,0,0,0,0,0,0,0,0,0,0,0,0,0,0,0,0,0,0,0,0,0,0,0,0,0,0,0,0,0,0,0,0,0,0,0,0,0,0,0,0,0,0,0,0,0,0,0,0,0,0,0,0,0,0,0,0,0,0,0,0,0,0,0,0,0,0,0,0,0,0,0,0,0,0,0,0,0,0,0,0,0],"sum_hessian":[4.7749098E4,1.5113744E4,3.2635354E4,3.8014568E3,1.1312288E4,6.7920264E3,2.5843328E4,6.181246E3,5.1310415E3,3.4666555E3,3.3253706E3,4.8814517E3,2.0961877E4,5.3870337E3,7.9421277E2,2.753666E3,2.3773757E3,2.6254065E3,8.412491E2,2.0698686E2,3.1183838E3,4.337896E3,5.435558E2,1.0322809E3,1.9929596E4,1.7226465E3,3.664387E3,6.3328955E2,1.6092319E2,2.5424639E3,2.1120201E2,1.2367909E3,1.3886155E3,1.3689743E2,7.043517E2,1.8291629E2,2.4070572E1,2.6579653E3,4.6041833E2,4.7585165E2,3.8620444E3,3.9679626E1,5.038762E2,4.4663654E2,5.856443E2,1.6484553E4,3.4450435E3,1.5441908E3,1.7845569E2,3.2393416E3,4.250455E2,1.6334854E2,4.69941E2,6.817911E1,9.274409E1,1.6275726E3,9.1489124E2,1.3928062E2,7.1921394E1,1.1179026E3,1.18888374E2,8.083801E2,5.8023535E2,6.2798977E1,7.409845E1,3.3125488E2,3.7309677E2,1.2736405E2,5.555224E1,3.0249273E1,2.627716E3,1.5695778E2,3.0346054E2,7.25631E1,4.0328854E2,2.5456287E1,1.422334E1,1.7190219E2,2.7473434E2,3.348765E2,2.5076779E2,7.987905E2,1.5685762E4,2.2415134E2,3.220892E3],"tree_param":{"num_deleted":"0","num_feature":"9","num_nodes":"85","size_leaf_vector":"1"}},{"base_weights":[-4.9467033E-1,-4.8755586E-1,-5.177614E-1,-4.8997512E-1,-1.050385E-1,-1.6523711E-1,-4.9956763E-1,-4.948108E-1,-4.247242E-1,6.438288E-2,-1.6291511E-1,-3.3457956E-1,-5.041144E-1,-4.8809752E-1,-1.6526702E-1,-3.5405314E-1,-1.650892E-1,-4.3726705E-2,8.772242E-1,-1.6718935E-2,-4.41801E-1,-4.9859747E-1,-1.6514583E-1,-4.895712E-1,-2.9386038E-1,-2.8784496E-1,-4.2962524E-1,2.877824E-1,-2.982916E-1,3.3188328E-1,4.8674095E-1,-2.1058106E-1,3.0042347E-1,-3.1456062E-1,-1.6329677E-1,-5.0763667E-1,-2.3353E-1,-1.5040325E-1,-1.4394163E-1,-1.0650405E-1,1.3445388E-2,-6.54306E-2,-1.577489E-1,-1.4475086E-1,-3.3568855E-2,-1.696392E-2,2.0748363E-1,-1.616431E-1,-3.7502475E-2,-1.4497662E-1,3.6563224E-1,2.8065935E-2,-1.574335E-1,3.9369628E-1,-7.7409305E-2,-1.5258898E-1,1.5607242E-1,-1.628676E-1,-1.4925723E-1,-8.90167E-2,9.6407E-2],"categories":[],"categories_nodes":[],"categories_segments":[],"categories_sizes":[],"default_left":[0,0,0,0,0,0,0,0,0,0,0,0,0,0,0,0,0,0,0,0,0,0,0,0,0,0,0,0,0,0,0,0,0,0,0,0,0,0,0,0,0,0,0,0,0,0,0,0,0,0,0,0,0,0,0,0,0,0,0,0,0],"id":18,"left_children":[1,3,5,7,9,-1,11,13,15,17,-1,19,21,23,-1,25,-1,27,29,31,33,35,-1,37,39,41,43,45,47,-1,49,51,53,55,-1,57,59,-1,-1,-1,-1,-1,-1,-1,-1,-1,-1,-1,-1,-1,-1,-1,-1,-1,-1,-1,-1,-1,-1,-1,-1],"loss_changes":[7.6035156E0,3.3791992E1,6.4833984E0,1.1256836E1,1.7186026E1,0E0,5.279541E0,1.2467773E1,2.2119507E1,1.4762084E1,0E0,6.732189E0,1.533081E0,8.506348E0,0E0,7.9407654E0,0E0,1.2646124E1,1.2249737E0,3.1938567E0,1.7572021E0,1.5036621E1,0E0,3.2075195E0,4.7807236E0,1.4194855E1,1.2557098E1,9.09912E0,3.4618726E0,0E0,7.0329027E0,3.125062E0,1.14876995E1,1.133503E1,0E0,1.9102783E0,7.4742603E0,0E0,0E0,0E0,0E0,0E0,0E0,0E0,0E0,0E0,0E0,0E0,0E0,0E0,0E0,0E0,0E0,0E0,0E0,0E0,0E0,0E0,0E0,0E0,0E0],"parents":[2147483647,0,0,1,1,2,2,3,3,4,4,6,6,7,7,8,8,9,9,11,11,12,12,13,13,15,15,17,17,18,18,19,19,20,20,21,21,23,23,24,24,25,25,26,26,27,27,28,28,30,30,31,31,32,32,33,33,35,35,36,36],"right_children":[2,4,6,8,10,-1,12,14,16,18,-1,20,22,24,-1,26,-1,28,30,32,34,36,-1,38,40,42,44,46,48,-1,50,52,54,56,-1,58,60,-1,-1,-1,-1,-1,-1,-1,-1,-1,-1,-1,-1,-1,-1,-1,-1,-1,-1,-1,-1,-1,-1,-1,-1],"split_conditions":[2.2886306E-1,2.2852688E-1,2.3621583E-1,2.2354816E-1,9.955627E2,-1.6523711E-1,2.3647247E-1,2.1734801E-1,2.2688529E-1,9.807151E2,-1.6291511E-1,2.0811043E2,2.4863543E-1,2.1693811E-1,-1.6526702E-1,4.41E-1,-1.650892E-1,4.8036264E2,9.8324396E2,9.8E-2,9.707032E2,2.4832088E-1,-1.6514583E-1,1.843157E-1,1.1495E2,2.2603355E-1,2.265548E-1,2.12E-1,5.09E-1,3.3188328E-1,9.93E-1,8.240669E1,2.14E2,4.83E-1,-1.6329677E-1,1.51E-1,2.8163E2,-1.5040325E-1,-1.4394163E-1,-1.0650405E-1,1.3445388E-2,-6.54306E-2,-1.577489E-1,-1.4475086E-1,-3.3568855E-2,-1.696392E-2,2.0748363E-1,-1.616431E-1,-3.7502475E-2,-1.4497662E-1,3.6563224E-1,2.8065935E-2,-1.574335E-1,3.9369628E-1,-7.7409305E-2,-1.5258898E-1,1.5607242E-1,-1.628676E-1,-1.4925723E-1,-8.90167E-2,9.6407E-2],"split_indices":[0,0,0,0,3,0,0,0,0,3,0,3,0,0,0,1,0,3,3,1,3,0,0,0,5,0,0,1,1,0,1,3,2,1,0,1,4,0,0,0,0,0,0,0,0,0,0,0,0,0,0,0,0,0,0,0,0,0,0,0,0],"split_type":[0,0,0,0,0,0,0,0,0,0,0,0,0,0,0,0,0,0,0,0,0,0,0,0,0,0,0,0,0,0,0,0,0,0,0,0,0,0,0,0,0,0,0,0,0,0,0,0,0,0,0,0,0,0,0,0,0,0,0,0,0],"sum_hessian":[4.7816047E4,3.65706E4,1.1245442E4,3.6340484E4,2.3011967E2,3.983864E3,7.261578E3,3.382702E4,2.513463E3,1.6655127E2,6.356841E1,1.9674892E2,7.064829E3,3.0219164E4,3.607856E3,1.6107635E3,9.0269916E2,1.478351E2,1.871617E1,4.9918938E1,1.4682997E2,6.3241836E3,7.4064557E2,2.9990105E4,2.2905913E2,8.6113666E2,7.4962695E2,6.415642E1,8.367868E1,1.06411085E1,8.075061E0,3.1189495E1,1.8729443E1,6.733193E1,7.949804E1,6.114746E3,2.0943765E2,1.3574867E4,1.6415238E4,1.939843E2,3.507482E1,6.674519E2,1.9368472E2,6.4222675E2,1.0740025E2,3.5093567E1,2.9062853E1,3.4157867E1,4.952081E1,3.619203E0,4.4558578E0,1.6205383E1,1.4984113E1,6.180574E0,1.254887E1,5.494857E1,1.2383367E1,1.3512479E3,4.763498E3,1.8844246E2,2.0995193E1],"tree_param":{"num_deleted":"0","num_feature":"9","num_nodes":"61","size_leaf_vector":"1"}},{"base_weights":[-4.9970287E-1,-4.6700576E-1,-5.0608766E-1,-4.250339E-1,-5.213087E-1,-5.038451E-1,-1.6555487E-1,-4.6082425E-1,-3.337124E-1,-5.323821E-1,-1.4912252E-1,-5.048563E-1,-3.1492868E-1,-4.1392508E-1,-5.3667223E-1,-1.686804E-1,-4.202143E-1,-5.384324E-1,-3.1152496E-1,-4.5946193E-1,3.312186E-2,-5.1287127E-1,-4.9188277E-1,-1.6217962E-1,-1.6380227E-1,-4.6873266E-1,-2.7501774E-1,-5.1076925E-1,-1.6501252E-1,1.8564382E-1,-3.3942705E-1,-5.1310265E-1,-2.7640435E-1,-5.410433E-1,-4.7803253E-1,1.4444927E-2,-1.6302027E-1,-1.5970212E-1,-1.5968424E-1,2.2498046E-1,-1.6270304E-1,-4.9840668E-1,-5.347497E-1,-3.2176203E-1,-5.039101E-1,-4.5012715E-1,3.9603144E-1,-1.6071752E-1,-1.2972024E-1,-9.750981E-2,1.1726315E-1,-1.6515107E-1,-8.483599E-2,7.507315E-2,-1.6833588E-1,-1.1996866E-1,-1.697938E-3,-1.6568795E-1,-1.3779297E-1,2.417212E-2,-1.5101041E-1,-1.5759331E-1,-1.6519554E-1,-1.5187356E-1,-8.666054E-2,-1.6229957E-1,1.2878272E-1,-1.3143398E-1,4.291458E-2,-9.220222E-2,2.1796E-1,-1.440287E-1,-1.5856227E-1,-1.6291834E-1,-1.4700614E-1,-1.07644126E-1,7.3323095E-1,-1.6460279E-1,-1.4877401E-1,-1.4453082E-1,1.6174179E-2,1.6423881E-1,-1.4549553E-1],"categories":[],"categories_nodes":[],"categories_segments":[],"categories_sizes":[],"default_left":[0,0,0,0,0,0,0,0,0,0,0,0,0,0,0,0,0,0,0,0,0,0,0,0,0,0,0,0,0,0,0,0,0,0,0,0,0,0,0,0,0,0,0,0,0,0,0,0,0,0,0,0,0,0,0,0,0,0,0,0,0,0,0,0,0,0,0,0,0,0,0,0,0,0,0,0,0,0,0,0,0,0,0],"id":19,"left_children":[1,3,5,7,9,11,-1,13,15,17,19,21,23,25,27,29,31,33,35,37,39,41,43,45,-1,47,49,51,-1,53,55,57,59,61,63,65,-1,67,-1,69,-1,71,73,75,77,79,81,-1,-1,-1,-1,-1,-1,-1,-1,-1,-1,-1,-1,-1,-1,-1,-1,-1,-1,-1,-1,-1,-1,-1,-1,-1,-1,-1,-1,-1,-1,-1,-1,-1,-1,-1,-1],"loss_changes":[9.722656E0,1.7570923E1,3.8164062E0,1.4255188E1,1.3928406E1,7.109375E0,0E0,1.1035095E1,1.7701065E1,4.2422485E0,5.6478148E0,3.6826172E0,7.1554127E0,1.479184E1,1.3665771E-1,2.6065495E1,1.0760162E1,2.477417E-1,6.8385687E0,7.207451E-1,7.1524734E0,7.1289062E0,2.9456055E1,2.026663E1,0E0,3.1854553E0,1.8675095E1,3.689598E0,0E0,6.9139576E0,5.8583984E0,7.891998E-1,2.6165173E1,1.7474365E-1,6.0962296E-1,9.112055E0,0E0,7.911989E-1,0E0,1.3162111E1,0E0,7.5168457E0,3.1860352E0,9.91137E1,4.5671387E0,1.3484001E0,6.010546E0,0E0,0E0,0E0,0E0,0E0,0E0,0E0,0E0,0E0,0E0,0E0,0E0,0E0,0E0,0E0,0E0,0E0,0E0,0E0,0E0,0E0,0E0,0E0,0E0,0E0,0E0,0E0,0E0,0E0,0E0,0E0,0E0,0E0,0E0,0E0,0E0],"parents":[2147483647,0,0,1,1,2,2,3,3,4,4,5,5,7,7,8,8,9,9,10,10,11,11,12,12,13,13,14,14,15,15,16,16,17,17,18,18,19,19,20,20,21,21,22,22,23,23,25,25,26,26,27,27,29,29,30,30,31,31,32,32,33,33,34,34,35,35,37,37,39,39,41,41,42,42,43,43,44,44,45,45,46,46],"right_children":[2,4,6,8,10,12,-1,14,16,18,20,22,24,26,28,30,32,34,36,38,40,42,44,46,-1,48,50,52,-1,54,56,58,60,62,64,66,-1,68,-1,70,-1,72,74,76,78,80,82,-1,-1,-1,-1,-1,-1,-1,-1,-1,-1,-1,-1,-1,-1,-1,-1,-1,-1,-1,-1,-1,-1,-1,-1,-1,-1,-1,-1,-1,-1,-1,-1,-1,-1,-1,-1],"split_conditions":[1.6965845E-1,9.995834E2,2.4635178E-1,1.6477405E-1,1.6920549E-1,2.4598628E-1,-1.6555487E-1,1.5885955E-1,1.663176E-1,9.99E-1,5.63E-1,2.193725E-1,7.65E-1,5.76E-1,4.4155627E2,9.1E-2,2.96E-1,1.6818386E-1,1.9977766E3,1.242217E3,2.9531697E3,5.9E-1,2.2107506E-1,1.5765537E3,-1.6380227E-1,1.5321453E-1,1.5853725E-1,2.96E-1,-1.6501252E-1,1.1433E2,2.8163E2,1.6818386E-1,7.96214E2,1.5733206E-1,9.9E-1,1.6220292E3,-1.6302027E-1,3.4E-1,-1.5968424E-1,1.9952968E3,-1.6270304E-1,2.035687E-1,3.0324705E3,1E0,2.243478E-1,1.1823E2,3.7526514E3,-1.6071752E-1,-1.2972024E-1,-9.750981E-2,1.1726315E-1,-1.6515107E-1,-8.483599E-2,7.507315E-2,-1.6833588E-1,-1.1996866E-1,-1.697938E-3,-1.6568795E-1,-1.3779297E-1,2.417212E-2,-1.5101041E-1,-1.5759331E-1,-1.6519554E-1,-1.5187356E-1,-8.666054E-2,-1.6229957E-1,1.2878272E-1,-1.3143398E-1,4.291458E-2,-9.220222E-2,2.1796E-1,-1.440287E-1,-1.5856227E-1,-1.6291834E-1,-1.4700614E-1,-1.07644126E-1,7.3323095E-1,-1.6460279E-1,-1.4877401E-1,-1.4453082E-1,1.6174179E-2,1.6423881E-1,-1.4549553E-1],"split_indices":[0,3,0,0,0,0,0,0,0,1,1,0,1,1,3,1,1,0,3,3,3,1,0,3,0,0,0,1,0,5,4,0,3,0,1,3,0,1,0,3,0,0,3,1,0,8,3,0,0,0,0,0,0,0,0,0,0,0,0,0,0,0,0,0,0,0,0,0,0,0,0,0,0,0,0,0,0,0,0,0,0,0,0],"split_type":[0,0,0,0,0,0,0,0,0,0,0,0,0,0,0,0,0,0,0,0,0,0,0,0,0,0,0,0,0,0,0,0,0,0,0,0,0,0,0,0,0,0,0,0,0,0,0,0,0,0,0,0,0,0,0,0,0,0,0,0,0,0,0,0,0,0,0,0,0,0,0,0,0,0,0,0,0,0,0,0,0,0,0],"sum_hessian":[4.7703465E4,7.8053877E3,3.989808E4,4.40754E3,3.3978474E3,3.8045656E4,1.852423E3,3.1636208E3,1.2439193E3,3.299257E3,9.859042E1,3.7841426E4,2.0422847E2,1.9588563E3,1.2047646E3,4.2879538E2,8.1512396E2,3.2098853E3,8.937185E1,3.591335E1,6.2677074E1,2.3366945E4,1.4474482E4,1.239778E2,8.025067E1,1.4029362E3,5.5592004E2,4.234833E2,7.812813E2,1.3941066E2,2.893847E2,4.936817E2,3.2144226E2,3.0692546E3,1.4063055E2,3.7538353E1,5.1833496E1,7.643193E0,2.8270157E1,4.7462315E1,1.5214763E1,1.4081153E4,9.285791E3,9.575935E2,1.351689E4,8.1915924E1,4.2061874E1,4.8848077E2,9.1445544E2,5.175585E2,3.836159E1,3.5942554E2,6.405777E1,1.2892287E2,1.0487792E1,2.4483072E2,4.4553997E1,2.8024426E2,2.1343744E2,1.25187325E2,1.9625494E2,1.1848868E3,1.8843679E3,1.2091986E2,1.9710686E1,1.5919105E1,2.1619251E1,3.7487314E0,3.8944614E0,2.321276E1,2.4249552E1,8.769381E3,5.311772E3,7.8213213E3,1.4644701E3,9.457939E2,1.1799651E1,2.0383969E3,1.1478492E4,7.711882E1,4.7971044E0,3.621564E1,5.846233E0],"tree_param":{"num_deleted":"0","num_feature":"9","num_nodes":"83","size_leaf_vector":"1"}},{"base_weights":[6.366706E-1,6.3402677E-1,6.612705E-1,6.3616896E-1,5.872777E-1,6.648308E-1,6.2152296E-1,6.415852E-1,6.262919E-1,6.7298216E-1,5.6710714E-1,6.5563214E-1,2.094017E-1,4.04785E-1,6.541492E-1,6.1959076E-1,6.456597E-1,6.5715086E-1,6.1566705E-1,6.128037E-1,2.0729375E-1,-1.495253E-2,5.7574147E-1,6.6004515E-1,3.503238E-1,5.483431E-1,-1.9404586E-1,2.124499E-1,6.236939E-1,6.3785845E-1,5.580857E-1,6.3998306E-1,6.5800154E-1,2.0828174E-1,6.519046E-1,3.4135944E-1,6.172867E-1,6.522356E-1,4.8944446E-1,-2.9381394E-1,2.183216E-1,5.3457254E-1,6.371396E-1,6.6820425E-1,6.3521934E-1,-6.700971E-1,5.8992016E-1,-9.801216E-2,2.0603912E-1,4.9401054E-1,6.594813E-1,1.9305111E-1,1.299573E-1,1.3002336E-1,1.7645541E-1,1.9471785E-1,1.8820395E-1,1.9798662E-1,1.1648511E-1,1.8952662E-1,1.9928256E-1,1.3072875E-1,-1.02245145E-1,1.7624076E-1,1.8852551E-1,1.6243726E-1,2.0395127E-1,1.611062E-1,-2.2458768E-1,1.675178E-1,-5.60749E-2,1.5439326E-1,1.9980092E-1,1.8533853E-1,2.0265646E-1,1.6873454E-1,2.04943E-1,1.0861599E-1,-3.3148417E-1,2.0808902E-1,1.1783196E-1,-7.796108E-2,1.17297806E-1,1.5968686E-1,5.0452232E-2,1.531142E-1,2.0464605E-1],"categories":[],"categories_nodes":[],"categories_segments":[],"categories_sizes":[],"default_left":[0,0,0,0,0,0,0,0,0,0,0,0,0,0,0,0,0,0,0,0,0,0,0,0,0,0,0,0,0,0,0,0,0,0,0,0,0,0,0,0,0,0,0,0,0,0,0,0,0,0,0,0,0,0,0,0,0,0,0,0,0,0,0,0,0,0,0,0,0,0,0,0,0,0,0,0,0,0,0,0,0,0,0,0,0,0,0],"id":20,"left_children":[1,3,5,7,9,11,13,15,17,19,21,23,-1,25,27,29,31,33,35,37,-1,39,41,43,45,47,-1,-1,49,51,53,55,57,-1,59,61,63,65,67,-1,-1,69,71,73,75,77,79,81,-1,83,85,-1,-1,-1,-1,-1,-1,-1,-1,-1,-1,-1,-1,-1,-1,-1,-1,-1,-1,-1,-1,-1,-1,-1,-1,-1,-1,-1,-1,-1,-1,-1,-1,-1,-1,-1,-1],"loss_changes":[7.0703125E0,1.0046875E1,1.1650391E0,4.9140625E0,7.5181885E0,2.6611328E0,6.326477E0,5.3535156E0,1.1154297E1,5.1364136E-1,1.8631592E1,1.0571777E1,0E0,1.9161747E1,8.883972E-1,1.094165E1,3.3710938E0,1.3027344E0,1.1448242E1,6.92688E-1,0E0,4.020775E1,8.889038E0,1.1765137E0,2.8847897E1,9.925159E0,0E0,0E0,2.112671E0,8.670654E0,8.4157715E0,3.8476562E0,8.710449E0,0E0,1.5532227E0,1.0212437E1,8.290039E0,1.0472107E-1,3.606122E0,0E0,0E0,3.7775818E1,4.8206787E0,1.7692871E0,6.503601E0,1.0542456E1,1.6654091E0,1.7090061E0,0E0,1.3775082E0,1.0337372E0,0E0,0E0,0E0,0E0,0E0,0E0,0E0,0E0,0E0,0E0,0E0,0E0,0E0,0E0,0E0,0E0,0E0,0E0,0E0,0E0,0E0,0E0,0E0,0E0,0E0,0E0,0E0,0E0,0E0,0E0,0E0,0E0,0E0,0E0,0E0,0E0],"parents":[2147483647,0,0,1,1,2,2,3,3,4,4,5,5,6,6,7,7,8,8,9,9,10,10,11,11,13,13,14,14,15,15,16,16,17,17,18,18,19,19,21,21,22,22,23,23,24,24,25,25,28,28,29,29,30,30,31,31,32,32,34,34,35,35,36,36,37,37,38,38,41,41,42,42,43,43,44,44,45,45,46,46,47,47,49,49,50,50],"right_children":[2,4,6,8,10,12,14,16,18,20,22,24,-1,26,28,30,32,34,36,38,-1,40,42,44,46,48,-1,-1,50,52,54,56,58,-1,60,62,64,66,68,-1,-1,70,72,74,76,78,80,82,-1,84,86,-1,-1,-1,-1,-1,-1,-1,-1,-1,-1,-1,-1,-1,-1,-1,-1,-1,-1,-1,-1,-1,-1,-1,-1,-1,-1,-1,-1,-1,-1,-1,-1,-1,-1,-1,-1],"split_conditions":[3.0324705E3,2.9383542E3,2.4335805E-1,1.0637141E3,1.7190033E-1,2.2603355E-1,2.4378674E-1,1.6865139E-1,1.8213806E-1,9.86E-1,1.7236055E-1,2.247027E-1,2.094017E-1,5.2936333E3,6.12E-1,1.6477405E-1,5.09E-1,1.5409622E-1,1.8247567E-1,9.84E-1,2.0729375E-1,9.92E-1,2.2107506E-1,9.88E-1,2.252074E-1,5.28E-1,-1.9404586E-1,2.124499E-1,3.8972124E3,9.96E-1,1.8073355E2,1.66E-1,2.4963662E-1,2.0828174E-1,1.6440602E-1,9.91E-1,2.035687E-1,3.05E-1,1.6676703E-1,-2.9381394E-1,2.183216E-1,2.2042611E-1,2.9601702E3,1.6255872E-1,9.95E-1,6.92E-1,2.2553761E-1,8.64E0,2.0603912E-1,2.8163E2,2.4494037E-1,1.9305111E-1,1.299573E-1,1.3002336E-1,1.7645541E-1,1.9471785E-1,1.8820395E-1,1.9798662E-1,1.1648511E-1,1.8952662E-1,1.9928256E-1,1.3072875E-1,-1.02245145E-1,1.7624076E-1,1.8852551E-1,1.6243726E-1,2.0395127E-1,1.611062E-1,-2.2458768E-1,1.675178E-1,-5.60749E-2,1.5439326E-1,1.9980092E-1,1.8533853E-1,2.0265646E-1,1.6873454E-1,2.04943E-1,1.0861599E-1,-3.3148417E-1,2.0808902E-1,1.1783196E-1,-7.796108E-2,1.17297806E-1,1.5968686E-1,5.0452232E-2,1.531142E-1,2.0464605E-1],"split_indices":[3,3,0,3,0,0,0,0,0,1,0,0,0,3,1,0,1,0,0,1,0,1,0,1,0,1,0,0,3,1,3,1,0,0,0,1,0,1,0,0,0,0,3,0,1,1,0,5,0,4,0,0,0,0,0,0,0,0,0,0,0,0,0,0,0,0,0,0,0,0,0,0,0,0,0,0,0,0,0,0,0,0,0,0,0,0,0],"split_type":[0,0,0,0,0,0,0,0,0,0,0,0,0,0,0,0,0,0,0,0,0,0,0,0,0,0,0,0,0,0,0,0,0,0,0,0,0,0,0,0,0,0,0,0,0,0,0,0,0,0,0,0,0,0,0,0,0,0,0,0,0,0,0,0,0,0,0,0,0,0,0,0,0,0,0,0,0,0,0,0,0,0,0,0,0,0,0],"sum_hessian":[1.1514806E5,1.03997695E5,1.1150366E4,9.942891E4,4.568785E3,1.0219259E4,9.3110693E2,6.4174188E4,3.5254723E4,8.64248E2,3.704537E3,8.0170527E3,2.202206E3,1.23577896E2,8.0752905E2,1.0054172E4,5.4120016E4,9.013851E3,2.6240871E4,2.0703001E2,6.5721796E2,5.4139717E1,3.6503975E3,7.9016772E3,1.153757E2,1.09155304E2,1.4422597E1,2.8312027E2,5.244088E2,7.744573E3,2.3095986E3,3.7105945E4,1.7014068E4,1.099895E3,7.9139556E3,1.5527321E2,2.6085598E4,1.5363354E2,5.3396473E1,2.3415133E1,3.0724586E1,2.1909912E3,1.4594062E3,5.9276284E3,1.9740487E3,2.1597399E1,9.3778305E1,1.9308413E1,8.9846886E1,1.16619E2,4.0778976E2,7.534607E3,2.0996649E2,4.5214548E2,1.8574531E3,2.1565629E4,1.5540318E4,1.689027E4,1.2379948E2,3.030288E3,4.8836675E3,1.367151E2,1.8558105E1,7.1057383E3,1.897986E4,3.4756737E1,1.1887681E2,5.1965794E1,1.4306812E0,2.1211858E3,6.98054E1,2.818926E2,1.1775137E3,7.6219916E2,5.165429E3,7.888875E2,1.1851613E3,6.45155E0,1.5145849E1,5.980128E1,3.3977024E1,1.48588E1,4.4496136E0,1.0379201E2,1.2826994E1,5.6927193E1,3.5086258E2],"tree_param":{"num_deleted":"0","num_feature":"9","num_nodes":"87","size_leaf_vector":"1"}},{"base_weights":[-5.1974523E-1,-5.300729E-1,-5.07719E-1,-1.6085327E-1,-5.249159E-1,-1.6138777E-1,-4.9744365E-1,-4.6197855E-1,-5.319068E-1,-5.8927033E-2,-5.0067425E-1,-4.8849013E-1,-9.634138E-2,-1.6116624E-1,-5.18226E-1,3.5951054E-1,-1.5910618E-1,-4.5982516E-1,-5.207164E-1,-5.2315766E-1,-3.8171315E-1,8.765553E-2,-1.5542854E-1,-1.1727098E-2,-1.597694E-1,4.6797493E-1,-1.3804762E-1,-4.7860342E-1,1.4082499E-1,-5.287014E-1,-4.7726825E-1,-1.2494815E-1,-1.6112973E-1,-1.8467225E-2,-1.6035E-1,-1.2831077E-1,1.3126856E-1,7.7586204E-2,-1.5558839E-1,1.4668066E-2,2.7915078E-1,-1.4787316E-1,-1.1331241E-1,8.975735E-2,-1.678778E-1,-1.4911835E-1,-1.6026759E-1,-1.6464729E-2,-1.5205792E-1],"categories":[],"categories_nodes":[],"categories_segments":[],"categories_sizes":[],"default_left":[0,0,0,0,0,0,0,0,0,0,0,0,0,0,0,0,0,0,0,0,0,0,0,0,0,0,0,0,0,0,0,0,0,0,0,0,0,0,0,0,0,0,0,0,0,0,0,0,0],"id":21,"left_children":[1,3,5,-1,7,-1,9,11,13,15,17,19,21,-1,23,25,-1,27,29,31,33,35,-1,37,-1,39,-1,41,43,45,47,-1,-1,-1,-1,-1,-1,-1,-1,-1,-1,-1,-1,-1,-1,-1,-1,-1,-1],